digraph Tree {
node [shape=box, style="filled", color="black", fontname="helvetica"] ;
edge [fontname="helvetica"] ;
0 [label="V18 <= -1.351\ngini = 0.5\nsamples = 287656\nvalue = [226878, 228024]\nclass = Fraud", fillcolor="#feffff"] ;
1 [label="V18 <= -1.759\ngini = 0.022\nsamples = 111841\nvalue = [1995, 174924]\nclass = Fraud", fillcolor="#3b9ee5"] ;
0 -> 1 [labeldistance=2.5, labelangle=45, headlabel="True"] ;
2 [label="Amount <= -1.858\ngini = 0.005\nsamples = 108336\nvalue = [393, 171025]\nclass = Fraud", fillcolor="#399de5"] ;
1 -> 2 ;
3 [label="V4 <= -11.384\ngini = 0.048\nsamples = 63\nvalue = [119, 3]\nclass = No Fraud", fillcolor="#e6843e"] ;
2 -> 3 ;
4 [label="V17 <= 3.905\ngini = 0.375\nsamples = 3\nvalue = [1, 3]\nclass = Fraud", fillcolor="#7bbeee"] ;
3 -> 4 ;
5 [label="gini = 0.0\nsamples = 2\nvalue = [0, 3]\nclass = Fraud", fillcolor="#399de5"] ;
4 -> 5 ;
6 [label="gini = 0.0\nsamples = 1\nvalue = [1, 0]\nclass = No Fraud", fillcolor="#e58139"] ;
4 -> 6 ;
7 [label="gini = 0.0\nsamples = 60\nvalue = [118, 0]\nclass = No Fraud", fillcolor="#e58139"] ;
3 -> 7 ;
8 [label="V10 <= 1.985\ngini = 0.003\nsamples = 108273\nvalue = [274, 171022]\nclass = Fraud", fillcolor="#399de5"] ;
2 -> 8 ;
9 [label="V19 <= 0.724\ngini = 0.002\nsamples = 108195\nvalue = [159, 171022]\nclass = Fraud", fillcolor="#399de5"] ;
8 -> 9 ;
10 [label="V4 <= 0.413\ngini = 0.001\nsamples = 108165\nvalue = [114, 171022]\nclass = Fraud", fillcolor="#399de5"] ;
9 -> 10 ;
11 [label="V11 <= 1.99\ngini = 0.001\nsamples = 108142\nvalue = [75, 171022]\nclass = Fraud", fillcolor="#399de5"] ;
10 -> 11 ;
12 [label="V27 <= -1.21\ngini = 0.001\nsamples = 108136\nvalue = [66, 171022]\nclass = Fraud", fillcolor="#399de5"] ;
11 -> 12 ;
13 [label="gini = 0.0\nsamples = 1\nvalue = [2, 0]\nclass = No Fraud", fillcolor="#e58139"] ;
12 -> 13 ;
14 [label="V4 <= -31.458\ngini = 0.001\nsamples = 108135\nvalue = [64, 171022]\nclass = Fraud", fillcolor="#399de5"] ;
12 -> 14 ;
15 [label="gini = 0.0\nsamples = 3\nvalue = [4, 0]\nclass = No Fraud", fillcolor="#e58139"] ;
14 -> 15 ;
16 [label="V13 <= -0.473\ngini = 0.001\nsamples = 108132\nvalue = [60, 171022]\nclass = Fraud", fillcolor="#399de5"] ;
14 -> 16 ;
17 [label="V28 <= 0.826\ngini = 0.001\nsamples = 108129\nvalue = [56, 171022]\nclass = Fraud", fillcolor="#399de5"] ;
16 -> 17 ;
18 [label="V26 <= 1.02\ngini = 0.0\nsamples = 74670\nvalue = [13, 117960]\nclass = Fraud", fillcolor="#399de5"] ;
17 -> 18 ;
19 [label="V2 <= 1.298\ngini = 0.0\nsamples = 73952\nvalue = [10, 116854]\nclass = Fraud", fillcolor="#399de5"] ;
18 -> 19 ;
20 [label="V15 <= -2.442\ngini = 0.0\nsamples = 73950\nvalue = [8, 116854]\nclass = Fraud", fillcolor="#399de5"] ;
19 -> 20 ;
21 [label="V26 <= 0.487\ngini = 0.0\nsamples = 71890\nvalue = [1, 113543]\nclass = Fraud", fillcolor="#399de5"] ;
20 -> 21 ;
22 [label="gini = 0.0\nsamples = 64367\nvalue = [0, 101663]\nclass = Fraud", fillcolor="#399de5"] ;
21 -> 22 ;
23 [label="V1 <= -0.291\ngini = 0.0\nsamples = 7523\nvalue = [1, 11880]\nclass = Fraud", fillcolor="#399de5"] ;
21 -> 23 ;
24 [label="V15 <= -4.258\ngini = 0.001\nsamples = 1108\nvalue = [1, 1778]\nclass = Fraud", fillcolor="#399de5"] ;
23 -> 24 ;
25 [label="gini = 0.0\nsamples = 1107\nvalue = [0, 1778]\nclass = Fraud", fillcolor="#399de5"] ;
24 -> 25 ;
26 [label="gini = 0.0\nsamples = 1\nvalue = [1, 0]\nclass = No Fraud", fillcolor="#e58139"] ;
24 -> 26 ;
27 [label="gini = 0.0\nsamples = 6415\nvalue = [0, 10102]\nclass = Fraud", fillcolor="#399de5"] ;
23 -> 27 ;
28 [label="V22 <= 1.372\ngini = 0.004\nsamples = 2060\nvalue = [7, 3311]\nclass = Fraud", fillcolor="#399de5"] ;
20 -> 28 ;
29 [label="V7 <= -1.769\ngini = 0.004\nsamples = 2059\nvalue = [6, 3311]\nclass = Fraud", fillcolor="#399de5"] ;
28 -> 29 ;
30 [label="V22 <= 0.962\ngini = 0.095\nsamples = 11\nvalue = [1, 19]\nclass = Fraud", fillcolor="#43a2e6"] ;
29 -> 30 ;
31 [label="gini = 0.0\nsamples = 1\nvalue = [1, 0]\nclass = No Fraud", fillcolor="#e58139"] ;
30 -> 31 ;
32 [label="gini = 0.0\nsamples = 10\nvalue = [0, 19]\nclass = Fraud", fillcolor="#399de5"] ;
30 -> 32 ;
33 [label="V2 <= -0.901\ngini = 0.003\nsamples = 2048\nvalue = [5, 3292]\nclass = Fraud", fillcolor="#399de5"] ;
29 -> 33 ;
34 [label="gini = 0.0\nsamples = 2043\nvalue = [0, 3292]\nclass = Fraud", fillcolor="#399de5"] ;
33 -> 34 ;
35 [label="gini = 0.0\nsamples = 5\nvalue = [5, 0]\nclass = No Fraud", fillcolor="#e58139"] ;
33 -> 35 ;
36 [label="gini = 0.0\nsamples = 1\nvalue = [1, 0]\nclass = No Fraud", fillcolor="#e58139"] ;
28 -> 36 ;
37 [label="gini = 0.0\nsamples = 2\nvalue = [2, 0]\nclass = No Fraud", fillcolor="#e58139"] ;
19 -> 37 ;
38 [label="V5 <= 1.85\ngini = 0.005\nsamples = 718\nvalue = [3, 1106]\nclass = Fraud", fillcolor="#3a9de5"] ;
18 -> 38 ;
39 [label="gini = 0.0\nsamples = 1\nvalue = [3, 0]\nclass = No Fraud", fillcolor="#e58139"] ;
38 -> 39 ;
40 [label="gini = 0.0\nsamples = 717\nvalue = [0, 1106]\nclass = Fraud", fillcolor="#399de5"] ;
38 -> 40 ;
41 [label="V16 <= -0.459\ngini = 0.002\nsamples = 33459\nvalue = [43, 53062]\nclass = Fraud", fillcolor="#399de5"] ;
17 -> 41 ;
42 [label="V2 <= 0.757\ngini = 0.007\nsamples = 4592\nvalue = [24, 7225]\nclass = Fraud", fillcolor="#3a9de5"] ;
41 -> 42 ;
43 [label="V5 <= -0.136\ngini = 0.006\nsamples = 4591\nvalue = [20, 7225]\nclass = Fraud", fillcolor="#3a9de5"] ;
42 -> 43 ;
44 [label="gini = 0.0\nsamples = 1\nvalue = [3, 0]\nclass = No Fraud", fillcolor="#e58139"] ;
43 -> 44 ;
45 [label="V28 <= 1.7\ngini = 0.005\nsamples = 4590\nvalue = [17, 7225]\nclass = Fraud", fillcolor="#399de5"] ;
43 -> 45 ;
46 [label="gini = 0.0\nsamples = 3126\nvalue = [0, 4941]\nclass = Fraud", fillcolor="#399de5"] ;
45 -> 46 ;
47 [label="V1 <= 0.893\ngini = 0.015\nsamples = 1464\nvalue = [17, 2284]\nclass = Fraud", fillcolor="#3a9ee5"] ;
45 -> 47 ;
48 [label="V19 <= -5.088\ngini = 0.002\nsamples = 1449\nvalue = [2, 2273]\nclass = Fraud", fillcolor="#399de5"] ;
47 -> 48 ;
49 [label="V5 <= 5.566\ngini = 0.001\nsamples = 1421\nvalue = [1, 2227]\nclass = Fraud", fillcolor="#399de5"] ;
48 -> 49 ;
50 [label="gini = 0.0\nsamples = 1\nvalue = [1, 0]\nclass = No Fraud", fillcolor="#e58139"] ;
49 -> 50 ;
51 [label="gini = 0.0\nsamples = 1420\nvalue = [0, 2227]\nclass = Fraud", fillcolor="#399de5"] ;
49 -> 51 ;
52 [label="V11 <= -9.289\ngini = 0.042\nsamples = 28\nvalue = [1, 46]\nclass = Fraud", fillcolor="#3d9fe6"] ;
48 -> 52 ;
53 [label="gini = 0.0\nsamples = 1\nvalue = [1, 0]\nclass = No Fraud", fillcolor="#e58139"] ;
52 -> 53 ;
54 [label="gini = 0.0\nsamples = 27\nvalue = [0, 46]\nclass = Fraud", fillcolor="#399de5"] ;
52 -> 54 ;
55 [label="V17 <= -11.466\ngini = 0.488\nsamples = 15\nvalue = [15, 11]\nclass = No Fraud", fillcolor="#f8ddca"] ;
47 -> 55 ;
56 [label="gini = 0.0\nsamples = 5\nvalue = [0, 11]\nclass = Fraud", fillcolor="#399de5"] ;
55 -> 56 ;
57 [label="gini = 0.0\nsamples = 10\nvalue = [15, 0]\nclass = No Fraud", fillcolor="#e58139"] ;
55 -> 57 ;
58 [label="gini = 0.0\nsamples = 1\nvalue = [4, 0]\nclass = No Fraud", fillcolor="#e58139"] ;
42 -> 58 ;
59 [label="V17 <= -1.108\ngini = 0.001\nsamples = 28867\nvalue = [19, 45837]\nclass = Fraud", fillcolor="#399de5"] ;
41 -> 59 ;
60 [label="V15 <= -1.792\ngini = 0.001\nsamples = 28866\nvalue = [18, 45837]\nclass = Fraud", fillcolor="#399de5"] ;
59 -> 60 ;
61 [label="V5 <= 4.23\ngini = 0.001\nsamples = 28857\nvalue = [15, 45826]\nclass = Fraud", fillcolor="#399de5"] ;
60 -> 61 ;
62 [label="V17 <= -7.648\ngini = 0.003\nsamples = 5086\nvalue = [13, 8096]\nclass = Fraud", fillcolor="#399de5"] ;
61 -> 62 ;
63 [label="V8 <= -6.915\ngini = 0.043\nsamples = 109\nvalue = [4, 179]\nclass = Fraud", fillcolor="#3d9fe6"] ;
62 -> 63 ;
64 [label="gini = 0.0\nsamples = 108\nvalue = [0, 179]\nclass = Fraud", fillcolor="#399de5"] ;
63 -> 64 ;
65 [label="gini = 0.0\nsamples = 1\nvalue = [4, 0]\nclass = No Fraud", fillcolor="#e58139"] ;
63 -> 65 ;
66 [label="V15 <= -10.348\ngini = 0.002\nsamples = 4977\nvalue = [9, 7917]\nclass = Fraud", fillcolor="#399de5"] ;
62 -> 66 ;
67 [label="gini = 0.0\nsamples = 1\nvalue = [1, 0]\nclass = No Fraud", fillcolor="#e58139"] ;
66 -> 67 ;
68 [label="V5 <= 4.23\ngini = 0.002\nsamples = 4976\nvalue = [8, 7917]\nclass = Fraud", fillcolor="#399de5"] ;
66 -> 68 ;
69 [label="V15 <= -10.228\ngini = 0.002\nsamples = 4975\nvalue = [7, 7917]\nclass = Fraud", fillcolor="#399de5"] ;
68 -> 69 ;
70 [label="V1 <= 0.332\ngini = 0.375\nsamples = 5\nvalue = [2, 6]\nclass = Fraud", fillcolor="#7bbeee"] ;
69 -> 70 ;
71 [label="gini = 0.0\nsamples = 4\nvalue = [0, 6]\nclass = Fraud", fillcolor="#399de5"] ;
70 -> 71 ;
72 [label="gini = 0.0\nsamples = 1\nvalue = [2, 0]\nclass = No Fraud", fillcolor="#e58139"] ;
70 -> 72 ;
73 [label="V5 <= 4.12\ngini = 0.001\nsamples = 4970\nvalue = [5, 7911]\nclass = Fraud", fillcolor="#399de5"] ;
69 -> 73 ;
74 [label="gini = 0.0\nsamples = 4232\nvalue = [0, 6721]\nclass = Fraud", fillcolor="#399de5"] ;
73 -> 74 ;
75 [label="V17 <= -4.708\ngini = 0.008\nsamples = 738\nvalue = [5, 1190]\nclass = Fraud", fillcolor="#3a9de5"] ;
73 -> 75 ;
76 [label="V4 <= -6.466\ngini = 0.073\nsamples = 87\nvalue = [5, 126]\nclass = Fraud", fillcolor="#41a1e6"] ;
75 -> 76 ;
77 [label="V1 <= 1.163\ngini = 0.5\nsamples = 8\nvalue = [5, 5]\nclass = No Fraud", fillcolor="#ffffff"] ;
76 -> 77 ;
78 [label="gini = 0.0\nsamples = 5\nvalue = [5, 0]\nclass = No Fraud", fillcolor="#e58139"] ;
77 -> 78 ;
79 [label="gini = 0.0\nsamples = 3\nvalue = [0, 5]\nclass = Fraud", fillcolor="#399de5"] ;
77 -> 79 ;
80 [label="gini = 0.0\nsamples = 79\nvalue = [0, 121]\nclass = Fraud", fillcolor="#399de5"] ;
76 -> 80 ;
81 [label="gini = 0.0\nsamples = 651\nvalue = [0, 1064]\nclass = Fraud", fillcolor="#399de5"] ;
75 -> 81 ;
82 [label="gini = 0.0\nsamples = 1\nvalue = [1, 0]\nclass = No Fraud", fillcolor="#e58139"] ;
68 -> 82 ;
83 [label="V11 <= -0.588\ngini = 0.0\nsamples = 23771\nvalue = [2, 37730]\nclass = Fraud", fillcolor="#399de5"] ;
61 -> 83 ;
84 [label="V15 <= -9.302\ngini = 0.0\nsamples = 23770\nvalue = [1, 37730]\nclass = Fraud", fillcolor="#399de5"] ;
83 -> 84 ;
85 [label="gini = 0.0\nsamples = 14801\nvalue = [0, 23386]\nclass = Fraud", fillcolor="#399de5"] ;
84 -> 85 ;
86 [label="V15 <= -9.301\ngini = 0.0\nsamples = 8969\nvalue = [1, 14344]\nclass = Fraud", fillcolor="#399de5"] ;
84 -> 86 ;
87 [label="gini = 0.0\nsamples = 1\nvalue = [1, 0]\nclass = No Fraud", fillcolor="#e58139"] ;
86 -> 87 ;
88 [label="gini = 0.0\nsamples = 8968\nvalue = [0, 14344]\nclass = Fraud", fillcolor="#399de5"] ;
86 -> 88 ;
89 [label="gini = 0.0\nsamples = 1\nvalue = [1, 0]\nclass = No Fraud", fillcolor="#e58139"] ;
83 -> 89 ;
90 [label="V26 <= -0.356\ngini = 0.337\nsamples = 9\nvalue = [3, 11]\nclass = Fraud", fillcolor="#6fb8ec"] ;
60 -> 90 ;
91 [label="gini = 0.0\nsamples = 8\nvalue = [0, 11]\nclass = Fraud", fillcolor="#399de5"] ;
90 -> 91 ;
92 [label="gini = 0.0\nsamples = 1\nvalue = [3, 0]\nclass = No Fraud", fillcolor="#e58139"] ;
90 -> 92 ;
93 [label="gini = 0.0\nsamples = 1\nvalue = [1, 0]\nclass = No Fraud", fillcolor="#e58139"] ;
59 -> 93 ;
94 [label="gini = 0.0\nsamples = 3\nvalue = [4, 0]\nclass = No Fraud", fillcolor="#e58139"] ;
16 -> 94 ;
95 [label="gini = 0.0\nsamples = 6\nvalue = [9, 0]\nclass = No Fraud", fillcolor="#e58139"] ;
11 -> 95 ;
96 [label="gini = 0.0\nsamples = 23\nvalue = [39, 0]\nclass = No Fraud", fillcolor="#e58139"] ;
10 -> 96 ;
97 [label="gini = 0.0\nsamples = 30\nvalue = [45, 0]\nclass = No Fraud", fillcolor="#e58139"] ;
9 -> 97 ;
98 [label="gini = 0.0\nsamples = 78\nvalue = [115, 0]\nclass = No Fraud", fillcolor="#e58139"] ;
8 -> 98 ;
99 [label="V13 <= -0.784\ngini = 0.413\nsamples = 3505\nvalue = [1602, 3899]\nclass = Fraud", fillcolor="#8ac5f0"] ;
1 -> 99 ;
100 [label="V28 <= -0.234\ngini = 0.076\nsamples = 2557\nvalue = [159, 3878]\nclass = Fraud", fillcolor="#41a1e6"] ;
99 -> 100 ;
101 [label="V6 <= -0.445\ngini = 0.203\nsamples = 52\nvalue = [85, 11]\nclass = No Fraud", fillcolor="#e89153"] ;
100 -> 101 ;
102 [label="V16 <= -0.611\ngini = 0.457\nsamples = 11\nvalue = [6, 11]\nclass = Fraud", fillcolor="#a5d2f3"] ;
101 -> 102 ;
103 [label="gini = 0.0\nsamples = 7\nvalue = [0, 11]\nclass = Fraud", fillcolor="#399de5"] ;
102 -> 103 ;
104 [label="gini = 0.0\nsamples = 4\nvalue = [6, 0]\nclass = No Fraud", fillcolor="#e58139"] ;
102 -> 104 ;
105 [label="gini = 0.0\nsamples = 41\nvalue = [79, 0]\nclass = No Fraud", fillcolor="#e58139"] ;
101 -> 105 ;
106 [label="V17 <= 0.871\ngini = 0.037\nsamples = 2505\nvalue = [74, 3867]\nclass = Fraud", fillcolor="#3d9fe5"] ;
100 -> 106 ;
107 [label="V3 <= 5.266\ngini = 0.013\nsamples = 2477\nvalue = [26, 3867]\nclass = Fraud", fillcolor="#3a9ee5"] ;
106 -> 107 ;
108 [label="Time <= 0.956\ngini = 0.012\nsamples = 2476\nvalue = [23, 3867]\nclass = Fraud", fillcolor="#3a9ee5"] ;
107 -> 108 ;
109 [label="V4 <= -0.711\ngini = 0.009\nsamples = 2474\nvalue = [17, 3867]\nclass = Fraud", fillcolor="#3a9de5"] ;
108 -> 109 ;
110 [label="V5 <= -0.942\ngini = 0.003\nsamples = 2467\nvalue = [5, 3867]\nclass = Fraud", fillcolor="#399de5"] ;
109 -> 110 ;
111 [label="gini = 0.0\nsamples = 5\nvalue = [5, 0]\nclass = No Fraud", fillcolor="#e58139"] ;
110 -> 111 ;
112 [label="gini = 0.0\nsamples = 2462\nvalue = [0, 3867]\nclass = Fraud", fillcolor="#399de5"] ;
110 -> 112 ;
113 [label="gini = 0.0\nsamples = 7\nvalue = [12, 0]\nclass = No Fraud", fillcolor="#e58139"] ;
109 -> 113 ;
114 [label="gini = 0.0\nsamples = 2\nvalue = [6, 0]\nclass = No Fraud", fillcolor="#e58139"] ;
108 -> 114 ;
115 [label="gini = 0.0\nsamples = 1\nvalue = [3, 0]\nclass = No Fraud", fillcolor="#e58139"] ;
107 -> 115 ;
116 [label="gini = 0.0\nsamples = 28\nvalue = [48, 0]\nclass = No Fraud", fillcolor="#e58139"] ;
106 -> 116 ;
117 [label="V21 <= -0.955\ngini = 0.028\nsamples = 948\nvalue = [1443, 21]\nclass = No Fraud", fillcolor="#e5833c"] ;
99 -> 117 ;
118 [label="V16 <= -0.872\ngini = 0.309\nsamples = 85\nvalue = [89, 21]\nclass = No Fraud", fillcolor="#eb9f68"] ;
117 -> 118 ;
119 [label="V22 <= -0.539\ngini = 0.497\nsamples = 30\nvalue = [17, 20]\nclass = Fraud", fillcolor="#e1f0fb"] ;
118 -> 119 ;
120 [label="V13 <= -0.403\ngini = 0.355\nsamples = 21\nvalue = [6, 20]\nclass = Fraud", fillcolor="#74baed"] ;
119 -> 120 ;
121 [label="gini = 0.0\nsamples = 15\nvalue = [0, 20]\nclass = Fraud", fillcolor="#399de5"] ;
120 -> 121 ;
122 [label="gini = 0.0\nsamples = 6\nvalue = [6, 0]\nclass = No Fraud", fillcolor="#e58139"] ;
120 -> 122 ;
123 [label="gini = 0.0\nsamples = 9\nvalue = [11, 0]\nclass = No Fraud", fillcolor="#e58139"] ;
119 -> 123 ;
124 [label="V2 <= -1.47\ngini = 0.027\nsamples = 55\nvalue = [72, 1]\nclass = No Fraud", fillcolor="#e5833c"] ;
118 -> 124 ;
125 [label="gini = 0.0\nsamples = 54\nvalue = [72, 0]\nclass = No Fraud", fillcolor="#e58139"] ;
124 -> 125 ;
126 [label="gini = 0.0\nsamples = 1\nvalue = [0, 1]\nclass = Fraud", fillcolor="#399de5"] ;
124 -> 126 ;
127 [label="gini = 0.0\nsamples = 863\nvalue = [1354, 0]\nclass = No Fraud", fillcolor="#e58139"] ;
117 -> 127 ;
128 [label="V20 <= -1.116\ngini = 0.309\nsamples = 175815\nvalue = [224883, 53100]\nclass = No Fraud", fillcolor="#eb9f68"] ;
0 -> 128 [labeldistance=2.5, labelangle=-45, headlabel="False"] ;
129 [label="V24 <= 0.073\ngini = 0.486\nsamples = 26420\nvalue = [17423, 24386]\nclass = Fraud", fillcolor="#c6e3f8"] ;
128 -> 129 ;
130 [label="V1 <= -0.181\ngini = 0.427\nsamples = 20433\nvalue = [10009, 22349]\nclass = Fraud", fillcolor="#92c9f1"] ;
129 -> 130 ;
131 [label="V5 <= 0.813\ngini = 0.187\nsamples = 14211\nvalue = [2337, 20106]\nclass = Fraud", fillcolor="#50a8e8"] ;
130 -> 131 ;
132 [label="gini = 0.0\nsamples = 774\nvalue = [1247, 0]\nclass = No Fraud", fillcolor="#e58139"] ;
131 -> 132 ;
133 [label="V28 <= -0.452\ngini = 0.098\nsamples = 13437\nvalue = [1090, 20106]\nclass = Fraud", fillcolor="#44a2e6"] ;
131 -> 133 ;
134 [label="gini = 0.0\nsamples = 49\nvalue = [81, 0]\nclass = No Fraud", fillcolor="#e58139"] ;
133 -> 134 ;
135 [label="V15 <= 0.142\ngini = 0.091\nsamples = 13388\nvalue = [1009, 20106]\nclass = Fraud", fillcolor="#43a2e6"] ;
133 -> 135 ;
136 [label="V3 <= 0.55\ngini = 0.05\nsamples = 12495\nvalue = [503, 19189]\nclass = Fraud", fillcolor="#3ea0e6"] ;
135 -> 136 ;
137 [label="V12 <= 3.53\ngini = 0.014\nsamples = 84\nvalue = [143, 1]\nclass = No Fraud", fillcolor="#e5823a"] ;
136 -> 137 ;
138 [label="gini = 0.0\nsamples = 83\nvalue = [143, 0]\nclass = No Fraud", fillcolor="#e58139"] ;
137 -> 138 ;
139 [label="gini = 0.0\nsamples = 1\nvalue = [0, 1]\nclass = Fraud", fillcolor="#399de5"] ;
137 -> 139 ;
140 [label="V2 <= 1.951\ngini = 0.036\nsamples = 12411\nvalue = [360, 19188]\nclass = Fraud", fillcolor="#3d9fe5"] ;
136 -> 140 ;
141 [label="V7 <= 0.787\ngini = 0.033\nsamples = 12390\nvalue = [329, 19180]\nclass = Fraud", fillcolor="#3c9fe5"] ;
140 -> 141 ;
142 [label="V19 <= -0.704\ngini = 0.03\nsamples = 12363\nvalue = [293, 19180]\nclass = Fraud", fillcolor="#3c9ee5"] ;
141 -> 142 ;
143 [label="gini = 0.0\nsamples = 13\nvalue = [25, 0]\nclass = No Fraud", fillcolor="#e58139"] ;
142 -> 143 ;
144 [label="Time <= 0.853\ngini = 0.027\nsamples = 12350\nvalue = [268, 19180]\nclass = Fraud", fillcolor="#3c9ee5"] ;
142 -> 144 ;
145 [label="Time <= -0.924\ngini = 0.024\nsamples = 12331\nvalue = [240, 19180]\nclass = Fraud", fillcolor="#3b9ee5"] ;
144 -> 145 ;
146 [label="gini = 0.0\nsamples = 3\nvalue = [4, 0]\nclass = No Fraud", fillcolor="#e58139"] ;
145 -> 146 ;
147 [label="V14 <= 1.693\ngini = 0.024\nsamples = 12328\nvalue = [236, 19180]\nclass = Fraud", fillcolor="#3b9ee5"] ;
145 -> 147 ;
148 [label="V23 <= -1.074\ngini = 0.023\nsamples = 12322\nvalue = [228, 19180]\nclass = Fraud", fillcolor="#3b9ee5"] ;
147 -> 148 ;
149 [label="gini = 0.0\nsamples = 5\nvalue = [9, 0]\nclass = No Fraud", fillcolor="#e58139"] ;
148 -> 149 ;
150 [label="V6 <= -0.116\ngini = 0.022\nsamples = 12317\nvalue = [219, 19180]\nclass = Fraud", fillcolor="#3b9ee5"] ;
148 -> 150 ;
151 [label="V4 <= 0.509\ngini = 0.278\nsamples = 14\nvalue = [20, 4]\nclass = No Fraud", fillcolor="#ea9a61"] ;
150 -> 151 ;
152 [label="V26 <= 0.107\ngini = 0.32\nsamples = 4\nvalue = [1, 4]\nclass = Fraud", fillcolor="#6ab6ec"] ;
151 -> 152 ;
153 [label="gini = 0.0\nsamples = 1\nvalue = [1, 0]\nclass = No Fraud", fillcolor="#e58139"] ;
152 -> 153 ;
154 [label="gini = 0.0\nsamples = 3\nvalue = [0, 4]\nclass = Fraud", fillcolor="#399de5"] ;
152 -> 154 ;
155 [label="gini = 0.0\nsamples = 10\nvalue = [19, 0]\nclass = No Fraud", fillcolor="#e58139"] ;
151 -> 155 ;
156 [label="V21 <= 1.432\ngini = 0.02\nsamples = 12303\nvalue = [199, 19176]\nclass = Fraud", fillcolor="#3b9ee5"] ;
150 -> 156 ;
157 [label="V25 <= -1.346\ngini = 0.02\nsamples = 12301\nvalue = [197, 19176]\nclass = Fraud", fillcolor="#3b9ee5"] ;
156 -> 157 ;
158 [label="V18 <= 6.342\ngini = 0.306\nsamples = 191\nvalue = [59, 254]\nclass = Fraud", fillcolor="#67b4eb"] ;
157 -> 158 ;
159 [label="gini = 0.0\nsamples = 34\nvalue = [59, 0]\nclass = No Fraud", fillcolor="#e58139"] ;
158 -> 159 ;
160 [label="gini = 0.0\nsamples = 157\nvalue = [0, 254]\nclass = Fraud", fillcolor="#399de5"] ;
158 -> 160 ;
161 [label="V16 <= 1.244\ngini = 0.014\nsamples = 12110\nvalue = [138, 18922]\nclass = Fraud", fillcolor="#3a9ee5"] ;
157 -> 161 ;
162 [label="V7 <= 0.115\ngini = 0.011\nsamples = 12087\nvalue = [105, 18922]\nclass = Fraud", fillcolor="#3a9ee5"] ;
161 -> 162 ;
163 [label="V13 <= 0.165\ngini = 0.007\nsamples = 11377\nvalue = [60, 17842]\nclass = Fraud", fillcolor="#3a9de5"] ;
162 -> 163 ;
164 [label="V13 <= 0.132\ngini = 0.006\nsamples = 11370\nvalue = [52, 17842]\nclass = Fraud", fillcolor="#3a9de5"] ;
163 -> 164 ;
165 [label="V17 <= 3.101\ngini = 0.005\nsamples = 11349\nvalue = [47, 17807]\nclass = Fraud", fillcolor="#3a9de5"] ;
164 -> 165 ;
166 [label="V4 <= 1.703\ngini = 0.004\nsamples = 11344\nvalue = [40, 17807]\nclass = Fraud", fillcolor="#399de5"] ;
165 -> 166 ;
167 [label="V16 <= -1.972\ngini = 0.004\nsamples = 11342\nvalue = [38, 17807]\nclass = Fraud", fillcolor="#399de5"] ;
166 -> 167 ;
168 [label="gini = 0.0\nsamples = 2\nvalue = [2, 0]\nclass = No Fraud", fillcolor="#e58139"] ;
167 -> 168 ;
169 [label="V4 <= 1.584\ngini = 0.004\nsamples = 11340\nvalue = [36, 17807]\nclass = Fraud", fillcolor="#399de5"] ;
167 -> 169 ;
170 [label="V26 <= -0.923\ngini = 0.004\nsamples = 11332\nvalue = [34, 17797]\nclass = Fraud", fillcolor="#399de5"] ;
169 -> 170 ;
171 [label="gini = 0.0\nsamples = 1\nvalue = [2, 0]\nclass = No Fraud", fillcolor="#e58139"] ;
170 -> 171 ;
172 [label="V23 <= 0.825\ngini = 0.004\nsamples = 11331\nvalue = [32, 17797]\nclass = Fraud", fillcolor="#399de5"] ;
170 -> 172 ;
173 [label="V16 <= 1.227\ngini = 0.003\nsamples = 11274\nvalue = [29, 17711]\nclass = Fraud", fillcolor="#399de5"] ;
172 -> 173 ;
174 [label="V12 <= 0.194\ngini = 0.003\nsamples = 11272\nvalue = [28, 17708]\nclass = Fraud", fillcolor="#399de5"] ;
173 -> 174 ;
175 [label="V14 <= 0.482\ngini = 0.021\nsamples = 986\nvalue = [16, 1527]\nclass = Fraud", fillcolor="#3b9ee5"] ;
174 -> 175 ;
176 [label="V10 <= -1.774\ngini = 0.012\nsamples = 982\nvalue = [9, 1527]\nclass = Fraud", fillcolor="#3a9ee5"] ;
175 -> 176 ;
177 [label="gini = 0.0\nsamples = 1\nvalue = [2, 0]\nclass = No Fraud", fillcolor="#e58139"] ;
176 -> 177 ;
178 [label="V13 <= -0.118\ngini = 0.009\nsamples = 981\nvalue = [7, 1527]\nclass = Fraud", fillcolor="#3a9de5"] ;
176 -> 178 ;
179 [label="Time <= -0.526\ngini = 0.008\nsamples = 980\nvalue = [6, 1527]\nclass = Fraud", fillcolor="#3a9de5"] ;
178 -> 179 ;
180 [label="gini = 0.0\nsamples = 2\nvalue = [3, 0]\nclass = No Fraud", fillcolor="#e58139"] ;
179 -> 180 ;
181 [label="V9 <= 0.273\ngini = 0.004\nsamples = 978\nvalue = [3, 1527]\nclass = Fraud", fillcolor="#399de5"] ;
179 -> 181 ;
182 [label="V24 <= 0.04\ngini = 0.003\nsamples = 977\nvalue = [2, 1527]\nclass = Fraud", fillcolor="#399de5"] ;
181 -> 182 ;
183 [label="gini = 0.0\nsamples = 947\nvalue = [0, 1483]\nclass = Fraud", fillcolor="#399de5"] ;
182 -> 183 ;
184 [label="Time <= -0.056\ngini = 0.083\nsamples = 30\nvalue = [2, 44]\nclass = Fraud", fillcolor="#42a1e6"] ;
182 -> 184 ;
185 [label="gini = 0.0\nsamples = 2\nvalue = [2, 0]\nclass = No Fraud", fillcolor="#e58139"] ;
184 -> 185 ;
186 [label="gini = 0.0\nsamples = 28\nvalue = [0, 44]\nclass = Fraud", fillcolor="#399de5"] ;
184 -> 186 ;
187 [label="gini = 0.0\nsamples = 1\nvalue = [1, 0]\nclass = No Fraud", fillcolor="#e58139"] ;
181 -> 187 ;
188 [label="gini = 0.0\nsamples = 1\nvalue = [1, 0]\nclass = No Fraud", fillcolor="#e58139"] ;
178 -> 188 ;
189 [label="gini = 0.0\nsamples = 4\nvalue = [7, 0]\nclass = No Fraud", fillcolor="#e58139"] ;
175 -> 189 ;
190 [label="V11 <= 0.3\ngini = 0.001\nsamples = 10286\nvalue = [12, 16181]\nclass = Fraud", fillcolor="#399de5"] ;
174 -> 190 ;
191 [label="V16 <= 1.033\ngini = 0.001\nsamples = 10210\nvalue = [10, 16066]\nclass = Fraud", fillcolor="#399de5"] ;
190 -> 191 ;
192 [label="V22 <= -0.258\ngini = 0.001\nsamples = 10157\nvalue = [7, 15983]\nclass = Fraud", fillcolor="#399de5"] ;
191 -> 192 ;
193 [label="Time <= 0.541\ngini = 0.003\nsamples = 2573\nvalue = [6, 4126]\nclass = Fraud", fillcolor="#399de5"] ;
192 -> 193 ;
194 [label="V8 <= 1.47\ngini = 0.002\nsamples = 2572\nvalue = [4, 4126]\nclass = Fraud", fillcolor="#399de5"] ;
193 -> 194 ;
195 [label="V12 <= 2.031\ngini = 0.001\nsamples = 2202\nvalue = [1, 3551]\nclass = Fraud", fillcolor="#399de5"] ;
194 -> 195 ;
196 [label="gini = 0.0\nsamples = 1682\nvalue = [0, 2714]\nclass = Fraud", fillcolor="#399de5"] ;
195 -> 196 ;
197 [label="V14 <= 1.063\ngini = 0.002\nsamples = 520\nvalue = [1, 837]\nclass = Fraud", fillcolor="#399de5"] ;
195 -> 197 ;
198 [label="gini = 0.0\nsamples = 519\nvalue = [0, 837]\nclass = Fraud", fillcolor="#399de5"] ;
197 -> 198 ;
199 [label="gini = 0.0\nsamples = 1\nvalue = [1, 0]\nclass = No Fraud", fillcolor="#e58139"] ;
197 -> 199 ;
200 [label="V6 <= 2.052\ngini = 0.01\nsamples = 370\nvalue = [3, 575]\nclass = Fraud", fillcolor="#3a9ee5"] ;
194 -> 200 ;
201 [label="gini = 0.0\nsamples = 1\nvalue = [3, 0]\nclass = No Fraud", fillcolor="#e58139"] ;
200 -> 201 ;
202 [label="gini = 0.0\nsamples = 369\nvalue = [0, 575]\nclass = Fraud", fillcolor="#399de5"] ;
200 -> 202 ;
203 [label="gini = 0.0\nsamples = 1\nvalue = [2, 0]\nclass = No Fraud", fillcolor="#e58139"] ;
193 -> 203 ;
204 [label="V4 <= 0.682\ngini = 0.0\nsamples = 7584\nvalue = [1, 11857]\nclass = Fraud", fillcolor="#399de5"] ;
192 -> 204 ;
205 [label="gini = 0.0\nsamples = 7340\nvalue = [0, 11476]\nclass = Fraud", fillcolor="#399de5"] ;
204 -> 205 ;
206 [label="V8 <= 1.18\ngini = 0.005\nsamples = 244\nvalue = [1, 381]\nclass = Fraud", fillcolor="#3a9de5"] ;
204 -> 206 ;
207 [label="gini = 0.0\nsamples = 243\nvalue = [0, 381]\nclass = Fraud", fillcolor="#399de5"] ;
206 -> 207 ;
208 [label="gini = 0.0\nsamples = 1\nvalue = [1, 0]\nclass = No Fraud", fillcolor="#e58139"] ;
206 -> 208 ;
209 [label="V17 <= 0.466\ngini = 0.067\nsamples = 53\nvalue = [3, 83]\nclass = Fraud", fillcolor="#40a1e6"] ;
191 -> 209 ;
210 [label="gini = 0.0\nsamples = 51\nvalue = [0, 83]\nclass = Fraud", fillcolor="#399de5"] ;
209 -> 210 ;
211 [label="gini = 0.0\nsamples = 2\nvalue = [3, 0]\nclass = No Fraud", fillcolor="#e58139"] ;
209 -> 211 ;
212 [label="V14 <= -0.856\ngini = 0.034\nsamples = 76\nvalue = [2, 115]\nclass = Fraud", fillcolor="#3c9fe5"] ;
190 -> 212 ;
213 [label="gini = 0.0\nsamples = 1\nvalue = [2, 0]\nclass = No Fraud", fillcolor="#e58139"] ;
212 -> 213 ;
214 [label="gini = 0.0\nsamples = 75\nvalue = [0, 115]\nclass = Fraud", fillcolor="#399de5"] ;
212 -> 214 ;
215 [label="V14 <= -0.248\ngini = 0.375\nsamples = 2\nvalue = [1, 3]\nclass = Fraud", fillcolor="#7bbeee"] ;
173 -> 215 ;
216 [label="gini = 0.0\nsamples = 1\nvalue = [0, 3]\nclass = Fraud", fillcolor="#399de5"] ;
215 -> 216 ;
217 [label="gini = 0.0\nsamples = 1\nvalue = [1, 0]\nclass = No Fraud", fillcolor="#e58139"] ;
215 -> 217 ;
218 [label="V11 <= 0.931\ngini = 0.065\nsamples = 57\nvalue = [3, 86]\nclass = Fraud", fillcolor="#40a0e6"] ;
172 -> 218 ;
219 [label="gini = 0.0\nsamples = 1\nvalue = [3, 0]\nclass = No Fraud", fillcolor="#e58139"] ;
218 -> 219 ;
220 [label="gini = 0.0\nsamples = 56\nvalue = [0, 86]\nclass = Fraud", fillcolor="#399de5"] ;
218 -> 220 ;
221 [label="V7 <= -0.587\ngini = 0.278\nsamples = 8\nvalue = [2, 10]\nclass = Fraud", fillcolor="#61b1ea"] ;
169 -> 221 ;
222 [label="gini = 0.0\nsamples = 1\nvalue = [2, 0]\nclass = No Fraud", fillcolor="#e58139"] ;
221 -> 222 ;
223 [label="gini = 0.0\nsamples = 7\nvalue = [0, 10]\nclass = Fraud", fillcolor="#399de5"] ;
221 -> 223 ;
224 [label="gini = 0.0\nsamples = 2\nvalue = [2, 0]\nclass = No Fraud", fillcolor="#e58139"] ;
166 -> 224 ;
225 [label="gini = 0.0\nsamples = 5\nvalue = [7, 0]\nclass = No Fraud", fillcolor="#e58139"] ;
165 -> 225 ;
226 [label="V6 <= 0.86\ngini = 0.219\nsamples = 21\nvalue = [5, 35]\nclass = Fraud", fillcolor="#55abe9"] ;
164 -> 226 ;
227 [label="gini = 0.0\nsamples = 18\nvalue = [0, 33]\nclass = Fraud", fillcolor="#399de5"] ;
226 -> 227 ;
228 [label="Amount <= 0.002\ngini = 0.408\nsamples = 3\nvalue = [5, 2]\nclass = No Fraud", fillcolor="#efb388"] ;
226 -> 228 ;
229 [label="gini = 0.0\nsamples = 1\nvalue = [0, 2]\nclass = Fraud", fillcolor="#399de5"] ;
228 -> 229 ;
230 [label="gini = 0.0\nsamples = 2\nvalue = [5, 0]\nclass = No Fraud", fillcolor="#e58139"] ;
228 -> 230 ;
231 [label="gini = 0.0\nsamples = 7\nvalue = [8, 0]\nclass = No Fraud", fillcolor="#e58139"] ;
163 -> 231 ;
232 [label="V4 <= 0.897\ngini = 0.077\nsamples = 710\nvalue = [45, 1080]\nclass = Fraud", fillcolor="#41a1e6"] ;
162 -> 232 ;
233 [label="V8 <= 1.417\ngini = 0.011\nsamples = 686\nvalue = [6, 1080]\nclass = Fraud", fillcolor="#3a9ee5"] ;
232 -> 233 ;
234 [label="V6 <= 1.454\ngini = 0.007\nsamples = 684\nvalue = [4, 1080]\nclass = Fraud", fillcolor="#3a9de5"] ;
233 -> 234 ;
235 [label="V17 <= 0.653\ngini = 0.016\nsamples = 310\nvalue = [4, 491]\nclass = Fraud", fillcolor="#3b9ee5"] ;
234 -> 235 ;
236 [label="gini = 0.0\nsamples = 2\nvalue = [3, 0]\nclass = No Fraud", fillcolor="#e58139"] ;
235 -> 236 ;
237 [label="V22 <= -0.092\ngini = 0.004\nsamples = 308\nvalue = [1, 491]\nclass = Fraud", fillcolor="#399de5"] ;
235 -> 237 ;
238 [label="V22 <= -0.093\ngini = 0.18\nsamples = 6\nvalue = [1, 9]\nclass = Fraud", fillcolor="#4fa8e8"] ;
237 -> 238 ;
239 [label="gini = 0.0\nsamples = 5\nvalue = [0, 9]\nclass = Fraud", fillcolor="#399de5"] ;
238 -> 239 ;
240 [label="gini = 0.0\nsamples = 1\nvalue = [1, 0]\nclass = No Fraud", fillcolor="#e58139"] ;
238 -> 240 ;
241 [label="gini = 0.0\nsamples = 302\nvalue = [0, 482]\nclass = Fraud", fillcolor="#399de5"] ;
237 -> 241 ;
242 [label="gini = 0.0\nsamples = 374\nvalue = [0, 589]\nclass = Fraud", fillcolor="#399de5"] ;
234 -> 242 ;
243 [label="gini = 0.0\nsamples = 2\nvalue = [2, 0]\nclass = No Fraud", fillcolor="#e58139"] ;
233 -> 243 ;
244 [label="gini = 0.0\nsamples = 24\nvalue = [39, 0]\nclass = No Fraud", fillcolor="#e58139"] ;
232 -> 244 ;
245 [label="gini = 0.0\nsamples = 23\nvalue = [33, 0]\nclass = No Fraud", fillcolor="#e58139"] ;
161 -> 245 ;
246 [label="gini = 0.0\nsamples = 2\nvalue = [2, 0]\nclass = No Fraud", fillcolor="#e58139"] ;
156 -> 246 ;
247 [label="gini = 0.0\nsamples = 6\nvalue = [8, 0]\nclass = No Fraud", fillcolor="#e58139"] ;
147 -> 247 ;
248 [label="gini = 0.0\nsamples = 19\nvalue = [28, 0]\nclass = No Fraud", fillcolor="#e58139"] ;
144 -> 248 ;
249 [label="gini = 0.0\nsamples = 27\nvalue = [36, 0]\nclass = No Fraud", fillcolor="#e58139"] ;
141 -> 249 ;
250 [label="V13 <= -3.078\ngini = 0.326\nsamples = 21\nvalue = [31, 8]\nclass = No Fraud", fillcolor="#eca26c"] ;
140 -> 250 ;
251 [label="V7 <= -1.593\ngini = 0.397\nsamples = 6\nvalue = [3, 8]\nclass = Fraud", fillcolor="#83c2ef"] ;
250 -> 251 ;
252 [label="gini = 0.0\nsamples = 1\nvalue = [3, 0]\nclass = No Fraud", fillcolor="#e58139"] ;
251 -> 252 ;
253 [label="gini = 0.0\nsamples = 5\nvalue = [0, 8]\nclass = Fraud", fillcolor="#399de5"] ;
251 -> 253 ;
254 [label="gini = 0.0\nsamples = 15\nvalue = [28, 0]\nclass = No Fraud", fillcolor="#e58139"] ;
250 -> 254 ;
255 [label="V13 <= -1.045\ngini = 0.458\nsamples = 893\nvalue = [506, 917]\nclass = Fraud", fillcolor="#a6d3f3"] ;
135 -> 255 ;
256 [label="V14 <= 1.685\ngini = 0.279\nsamples = 660\nvalue = [177, 880]\nclass = Fraud", fillcolor="#61b1ea"] ;
255 -> 256 ;
257 [label="V12 <= -1.482\ngini = 0.185\nsamples = 619\nvalue = [101, 880]\nclass = Fraud", fillcolor="#50a8e8"] ;
256 -> 257 ;
258 [label="gini = 0.0\nsamples = 19\nvalue = [34, 0]\nclass = No Fraud", fillcolor="#e58139"] ;
257 -> 258 ;
259 [label="V19 <= 0.357\ngini = 0.131\nsamples = 600\nvalue = [67, 880]\nclass = Fraud", fillcolor="#48a4e7"] ;
257 -> 259 ;
260 [label="V7 <= 0.433\ngini = 0.112\nsamples = 594\nvalue = [56, 880]\nclass = Fraud", fillcolor="#46a3e7"] ;
259 -> 260 ;
261 [label="V16 <= -1.574\ngini = 0.046\nsamples = 575\nvalue = [21, 880]\nclass = Fraud", fillcolor="#3e9fe6"] ;
260 -> 261 ;
262 [label="gini = 0.0\nsamples = 8\nvalue = [12, 0]\nclass = No Fraud", fillcolor="#e58139"] ;
261 -> 262 ;
263 [label="V18 <= -1.005\ngini = 0.02\nsamples = 567\nvalue = [9, 880]\nclass = Fraud", fillcolor="#3b9ee5"] ;
261 -> 263 ;
264 [label="gini = 0.0\nsamples = 1\nvalue = [3, 0]\nclass = No Fraud", fillcolor="#e58139"] ;
263 -> 264 ;
265 [label="V25 <= 0.457\ngini = 0.013\nsamples = 566\nvalue = [6, 880]\nclass = Fraud", fillcolor="#3a9ee5"] ;
263 -> 265 ;
266 [label="Time <= -0.82\ngini = 0.011\nsamples = 565\nvalue = [5, 880]\nclass = Fraud", fillcolor="#3a9ee5"] ;
265 -> 266 ;
267 [label="gini = 0.0\nsamples = 2\nvalue = [3, 0]\nclass = No Fraud", fillcolor="#e58139"] ;
266 -> 267 ;
268 [label="V1 <= -0.298\ngini = 0.005\nsamples = 563\nvalue = [2, 880]\nclass = Fraud", fillcolor="#399de5"] ;
266 -> 268 ;
269 [label="gini = 0.0\nsamples = 1\nvalue = [1, 0]\nclass = No Fraud", fillcolor="#e58139"] ;
268 -> 269 ;
270 [label="V16 <= 0.574\ngini = 0.002\nsamples = 562\nvalue = [1, 880]\nclass = Fraud", fillcolor="#399de5"] ;
268 -> 270 ;
271 [label="gini = 0.0\nsamples = 561\nvalue = [0, 880]\nclass = Fraud", fillcolor="#399de5"] ;
270 -> 271 ;
272 [label="gini = 0.0\nsamples = 1\nvalue = [1, 0]\nclass = No Fraud", fillcolor="#e58139"] ;
270 -> 272 ;
273 [label="gini = 0.0\nsamples = 1\nvalue = [1, 0]\nclass = No Fraud", fillcolor="#e58139"] ;
265 -> 273 ;
274 [label="gini = 0.0\nsamples = 19\nvalue = [35, 0]\nclass = No Fraud", fillcolor="#e58139"] ;
260 -> 274 ;
275 [label="gini = 0.0\nsamples = 6\nvalue = [11, 0]\nclass = No Fraud", fillcolor="#e58139"] ;
259 -> 275 ;
276 [label="gini = 0.0\nsamples = 41\nvalue = [76, 0]\nclass = No Fraud", fillcolor="#e58139"] ;
256 -> 276 ;
277 [label="V3 <= 1.283\ngini = 0.182\nsamples = 233\nvalue = [329, 37]\nclass = No Fraud", fillcolor="#e88f4f"] ;
255 -> 277 ;
278 [label="V9 <= -0.382\ngini = 0.007\nsamples = 171\nvalue = [271, 1]\nclass = No Fraud", fillcolor="#e5813a"] ;
277 -> 278 ;
279 [label="V20 <= -1.63\ngini = 0.133\nsamples = 10\nvalue = [13, 1]\nclass = No Fraud", fillcolor="#e78b48"] ;
278 -> 279 ;
280 [label="V8 <= 0.828\ngini = 0.444\nsamples = 2\nvalue = [2, 1]\nclass = No Fraud", fillcolor="#f2c09c"] ;
279 -> 280 ;
281 [label="gini = 0.0\nsamples = 1\nvalue = [2, 0]\nclass = No Fraud", fillcolor="#e58139"] ;
280 -> 281 ;
282 [label="gini = 0.0\nsamples = 1\nvalue = [0, 1]\nclass = Fraud", fillcolor="#399de5"] ;
280 -> 282 ;
283 [label="gini = 0.0\nsamples = 8\nvalue = [11, 0]\nclass = No Fraud", fillcolor="#e58139"] ;
279 -> 283 ;
284 [label="gini = 0.0\nsamples = 161\nvalue = [258, 0]\nclass = No Fraud", fillcolor="#e58139"] ;
278 -> 284 ;
285 [label="V4 <= -0.357\ngini = 0.473\nsamples = 62\nvalue = [58, 36]\nclass = No Fraud", fillcolor="#f5cfb4"] ;
277 -> 285 ;
286 [label="V18 <= -0.659\ngini = 0.142\nsamples = 24\nvalue = [3, 36]\nclass = Fraud", fillcolor="#49a5e7"] ;
285 -> 286 ;
287 [label="gini = 0.0\nsamples = 22\nvalue = [0, 36]\nclass = Fraud", fillcolor="#399de5"] ;
286 -> 287 ;
288 [label="gini = 0.0\nsamples = 2\nvalue = [3, 0]\nclass = No Fraud", fillcolor="#e58139"] ;
286 -> 288 ;
289 [label="gini = 0.0\nsamples = 38\nvalue = [55, 0]\nclass = No Fraud", fillcolor="#e58139"] ;
285 -> 289 ;
290 [label="V16 <= -0.301\ngini = 0.35\nsamples = 6222\nvalue = [7672, 2243]\nclass = No Fraud", fillcolor="#eda673"] ;
130 -> 290 ;
291 [label="V4 <= -0.995\ngini = 0.491\nsamples = 3004\nvalue = [2699, 2062]\nclass = No Fraud", fillcolor="#f9e1d0"] ;
290 -> 291 ;
292 [label="V14 <= -0.281\ngini = 0.34\nsamples = 1253\nvalue = [426, 1533]\nclass = Fraud", fillcolor="#70b8ec"] ;
291 -> 292 ;
293 [label="V18 <= 1.213\ngini = 0.259\nsamples = 155\nvalue = [205, 37]\nclass = No Fraud", fillcolor="#ea985d"] ;
292 -> 293 ;
294 [label="gini = 0.0\nsamples = 116\nvalue = [184, 0]\nclass = No Fraud", fillcolor="#e58139"] ;
293 -> 294 ;
295 [label="V18 <= 1.747\ngini = 0.462\nsamples = 39\nvalue = [21, 37]\nclass = Fraud", fillcolor="#a9d5f4"] ;
293 -> 295 ;
296 [label="V27 <= -0.059\ngini = 0.268\nsamples = 28\nvalue = [7, 37]\nclass = Fraud", fillcolor="#5eb0ea"] ;
295 -> 296 ;
297 [label="gini = 0.0\nsamples = 2\nvalue = [4, 0]\nclass = No Fraud", fillcolor="#e58139"] ;
296 -> 297 ;
298 [label="V16 <= -1.687\ngini = 0.139\nsamples = 26\nvalue = [3, 37]\nclass = Fraud", fillcolor="#49a5e7"] ;
296 -> 298 ;
299 [label="gini = 0.0\nsamples = 1\nvalue = [2, 0]\nclass = No Fraud", fillcolor="#e58139"] ;
298 -> 299 ;
300 [label="V1 <= 0.451\ngini = 0.051\nsamples = 25\nvalue = [1, 37]\nclass = Fraud", fillcolor="#3ea0e6"] ;
298 -> 300 ;
301 [label="gini = 0.0\nsamples = 24\nvalue = [0, 37]\nclass = Fraud", fillcolor="#399de5"] ;
300 -> 301 ;
302 [label="gini = 0.0\nsamples = 1\nvalue = [1, 0]\nclass = No Fraud", fillcolor="#e58139"] ;
300 -> 302 ;
303 [label="gini = 0.0\nsamples = 11\nvalue = [14, 0]\nclass = No Fraud", fillcolor="#e58139"] ;
295 -> 303 ;
304 [label="V18 <= 0.539\ngini = 0.224\nsamples = 1098\nvalue = [221, 1496]\nclass = Fraud", fillcolor="#56abe9"] ;
292 -> 304 ;
305 [label="Amount <= -0.157\ngini = 0.342\nsamples = 146\nvalue = [171, 48]\nclass = No Fraud", fillcolor="#eca471"] ;
304 -> 305 ;
306 [label="V5 <= 3.505\ngini = 0.375\nsamples = 42\nvalue = [16, 48]\nclass = Fraud", fillcolor="#7bbeee"] ;
305 -> 306 ;
307 [label="gini = 0.0\nsamples = 12\nvalue = [16, 0]\nclass = No Fraud", fillcolor="#e58139"] ;
306 -> 307 ;
308 [label="gini = 0.0\nsamples = 30\nvalue = [0, 48]\nclass = Fraud", fillcolor="#399de5"] ;
306 -> 308 ;
309 [label="gini = 0.0\nsamples = 104\nvalue = [155, 0]\nclass = No Fraud", fillcolor="#e58139"] ;
305 -> 309 ;
310 [label="V2 <= -0.112\ngini = 0.065\nsamples = 952\nvalue = [50, 1448]\nclass = Fraud", fillcolor="#40a0e6"] ;
304 -> 310 ;
311 [label="gini = 0.0\nsamples = 24\nvalue = [32, 0]\nclass = No Fraud", fillcolor="#e58139"] ;
310 -> 311 ;
312 [label="V25 <= -0.811\ngini = 0.024\nsamples = 928\nvalue = [18, 1448]\nclass = Fraud", fillcolor="#3b9ee5"] ;
310 -> 312 ;
313 [label="gini = 0.0\nsamples = 4\nvalue = [10, 0]\nclass = No Fraud", fillcolor="#e58139"] ;
312 -> 313 ;
314 [label="V7 <= -1.01\ngini = 0.011\nsamples = 924\nvalue = [8, 1448]\nclass = Fraud", fillcolor="#3a9ee5"] ;
312 -> 314 ;
315 [label="gini = 0.0\nsamples = 2\nvalue = [4, 0]\nclass = No Fraud", fillcolor="#e58139"] ;
314 -> 315 ;
316 [label="V26 <= 0.126\ngini = 0.005\nsamples = 922\nvalue = [4, 1448]\nclass = Fraud", fillcolor="#3a9de5"] ;
314 -> 316 ;
317 [label="V16 <= -0.342\ngini = 0.002\nsamples = 773\nvalue = [1, 1210]\nclass = Fraud", fillcolor="#399de5"] ;
316 -> 317 ;
318 [label="gini = 0.0\nsamples = 756\nvalue = [0, 1185]\nclass = Fraud", fillcolor="#399de5"] ;
317 -> 318 ;
319 [label="V17 <= 1.64\ngini = 0.074\nsamples = 17\nvalue = [1, 25]\nclass = Fraud", fillcolor="#41a1e6"] ;
317 -> 319 ;
320 [label="gini = 0.0\nsamples = 16\nvalue = [0, 25]\nclass = Fraud", fillcolor="#399de5"] ;
319 -> 320 ;
321 [label="gini = 0.0\nsamples = 1\nvalue = [1, 0]\nclass = No Fraud", fillcolor="#e58139"] ;
319 -> 321 ;
322 [label="V3 <= 1.019\ngini = 0.025\nsamples = 149\nvalue = [3, 238]\nclass = Fraud", fillcolor="#3b9ee5"] ;
316 -> 322 ;
323 [label="gini = 0.0\nsamples = 146\nvalue = [0, 238]\nclass = Fraud", fillcolor="#399de5"] ;
322 -> 323 ;
324 [label="gini = 0.0\nsamples = 3\nvalue = [3, 0]\nclass = No Fraud", fillcolor="#e58139"] ;
322 -> 324 ;
325 [label="V17 <= 1.756\ngini = 0.306\nsamples = 1751\nvalue = [2273, 529]\nclass = No Fraud", fillcolor="#eb9e67"] ;
291 -> 325 ;
326 [label="V10 <= -0.651\ngini = 0.278\nsamples = 1680\nvalue = [2248, 449]\nclass = No Fraud", fillcolor="#ea9a61"] ;
325 -> 326 ;
327 [label="V13 <= -0.883\ngini = 0.049\nsamples = 691\nvalue = [1084, 28]\nclass = No Fraud", fillcolor="#e6843e"] ;
326 -> 327 ;
328 [label="V5 <= 3.174\ngini = 0.317\nsamples = 86\nvalue = [114, 28]\nclass = No Fraud", fillcolor="#eba06a"] ;
327 -> 328 ;
329 [label="Time <= 0.816\ngini = 0.019\nsamples = 65\nvalue = [104, 1]\nclass = No Fraud", fillcolor="#e5823b"] ;
328 -> 329 ;
330 [label="gini = 0.0\nsamples = 56\nvalue = [90, 0]\nclass = No Fraud", fillcolor="#e58139"] ;
329 -> 330 ;
331 [label="Amount <= -0.162\ngini = 0.124\nsamples = 9\nvalue = [14, 1]\nclass = No Fraud", fillcolor="#e78a47"] ;
329 -> 331 ;
332 [label="V25 <= -0.473\ngini = 0.444\nsamples = 2\nvalue = [2, 1]\nclass = No Fraud", fillcolor="#f2c09c"] ;
331 -> 332 ;
333 [label="gini = 0.0\nsamples = 1\nvalue = [2, 0]\nclass = No Fraud", fillcolor="#e58139"] ;
332 -> 333 ;
334 [label="gini = 0.0\nsamples = 1\nvalue = [0, 1]\nclass = Fraud", fillcolor="#399de5"] ;
332 -> 334 ;
335 [label="gini = 0.0\nsamples = 7\nvalue = [12, 0]\nclass = No Fraud", fillcolor="#e58139"] ;
331 -> 335 ;
336 [label="V23 <= 0.884\ngini = 0.394\nsamples = 21\nvalue = [10, 27]\nclass = Fraud", fillcolor="#82c1ef"] ;
328 -> 336 ;
337 [label="gini = 0.0\nsamples = 8\nvalue = [10, 0]\nclass = No Fraud", fillcolor="#e58139"] ;
336 -> 337 ;
338 [label="gini = 0.0\nsamples = 13\nvalue = [0, 27]\nclass = Fraud", fillcolor="#399de5"] ;
336 -> 338 ;
339 [label="gini = 0.0\nsamples = 605\nvalue = [970, 0]\nclass = No Fraud", fillcolor="#e58139"] ;
327 -> 339 ;
340 [label="V18 <= -0.055\ngini = 0.39\nsamples = 989\nvalue = [1164, 421]\nclass = No Fraud", fillcolor="#eeaf81"] ;
326 -> 340 ;
341 [label="gini = 0.0\nsamples = 422\nvalue = [679, 0]\nclass = No Fraud", fillcolor="#e58139"] ;
340 -> 341 ;
342 [label="V11 <= -0.127\ngini = 0.498\nsamples = 567\nvalue = [485, 421]\nclass = No Fraud", fillcolor="#fceee5"] ;
340 -> 342 ;
343 [label="V22 <= -0.362\ngini = 0.036\nsamples = 190\nvalue = [271, 5]\nclass = No Fraud", fillcolor="#e5833d"] ;
342 -> 343 ;
344 [label="V13 <= -2.55\ngini = 0.302\nsamples = 22\nvalue = [22, 5]\nclass = No Fraud", fillcolor="#eb9e66"] ;
343 -> 344 ;
345 [label="Amount <= 0.049\ngini = 0.278\nsamples = 5\nvalue = [1, 5]\nclass = Fraud", fillcolor="#61b1ea"] ;
344 -> 345 ;
346 [label="gini = 0.0\nsamples = 4\nvalue = [0, 5]\nclass = Fraud", fillcolor="#399de5"] ;
345 -> 346 ;
347 [label="gini = 0.0\nsamples = 1\nvalue = [1, 0]\nclass = No Fraud", fillcolor="#e58139"] ;
345 -> 347 ;
348 [label="gini = 0.0\nsamples = 17\nvalue = [21, 0]\nclass = No Fraud", fillcolor="#e58139"] ;
344 -> 348 ;
349 [label="gini = 0.0\nsamples = 168\nvalue = [249, 0]\nclass = No Fraud", fillcolor="#e58139"] ;
343 -> 349 ;
350 [label="V13 <= 0.036\ngini = 0.449\nsamples = 377\nvalue = [214, 416]\nclass = Fraud", fillcolor="#9fcff2"] ;
342 -> 350 ;
351 [label="V13 <= -2.859\ngini = 0.355\nsamples = 320\nvalue = [125, 416]\nclass = Fraud", fillcolor="#74baed"] ;
350 -> 351 ;
352 [label="gini = 0.0\nsamples = 13\nvalue = [26, 0]\nclass = No Fraud", fillcolor="#e58139"] ;
351 -> 352 ;
353 [label="V21 <= -0.205\ngini = 0.311\nsamples = 307\nvalue = [99, 416]\nclass = Fraud", fillcolor="#68b4eb"] ;
351 -> 353 ;
354 [label="V27 <= 0.358\ngini = 0.097\nsamples = 261\nvalue = [22, 408]\nclass = Fraud", fillcolor="#44a2e6"] ;
353 -> 354 ;
355 [label="V6 <= -1.079\ngini = 0.089\nsamples = 259\nvalue = [20, 408]\nclass = Fraud", fillcolor="#43a2e6"] ;
354 -> 355 ;
356 [label="gini = 0.0\nsamples = 3\nvalue = [5, 0]\nclass = No Fraud", fillcolor="#e58139"] ;
355 -> 356 ;
357 [label="V25 <= -0.963\ngini = 0.068\nsamples = 256\nvalue = [15, 408]\nclass = Fraud", fillcolor="#40a1e6"] ;
355 -> 357 ;
358 [label="gini = 0.0\nsamples = 2\nvalue = [2, 0]\nclass = No Fraud", fillcolor="#e58139"] ;
357 -> 358 ;
359 [label="V26 <= -0.328\ngini = 0.06\nsamples = 254\nvalue = [13, 408]\nclass = Fraud", fillcolor="#3fa0e6"] ;
357 -> 359 ;
360 [label="gini = 0.0\nsamples = 1\nvalue = [2, 0]\nclass = No Fraud", fillcolor="#e58139"] ;
359 -> 360 ;
361 [label="V5 <= 3.894\ngini = 0.051\nsamples = 253\nvalue = [11, 408]\nclass = Fraud", fillcolor="#3ea0e6"] ;
359 -> 361 ;
362 [label="V17 <= 0.577\ngini = 0.029\nsamples = 250\nvalue = [6, 408]\nclass = Fraud", fillcolor="#3c9ee5"] ;
361 -> 362 ;
363 [label="V14 <= 1.848\ngini = 0.005\nsamples = 247\nvalue = [1, 408]\nclass = Fraud", fillcolor="#399de5"] ;
362 -> 363 ;
364 [label="gini = 0.0\nsamples = 246\nvalue = [0, 408]\nclass = Fraud", fillcolor="#399de5"] ;
363 -> 364 ;
365 [label="gini = 0.0\nsamples = 1\nvalue = [1, 0]\nclass = No Fraud", fillcolor="#e58139"] ;
363 -> 365 ;
366 [label="gini = 0.0\nsamples = 3\nvalue = [5, 0]\nclass = No Fraud", fillcolor="#e58139"] ;
362 -> 366 ;
367 [label="gini = 0.0\nsamples = 3\nvalue = [5, 0]\nclass = No Fraud", fillcolor="#e58139"] ;
361 -> 367 ;
368 [label="gini = 0.0\nsamples = 2\nvalue = [2, 0]\nclass = No Fraud", fillcolor="#e58139"] ;
354 -> 368 ;
369 [label="V28 <= 0.047\ngini = 0.171\nsamples = 46\nvalue = [77, 8]\nclass = No Fraud", fillcolor="#e88e4e"] ;
353 -> 369 ;
370 [label="gini = 0.0\nsamples = 37\nvalue = [74, 0]\nclass = No Fraud", fillcolor="#e58139"] ;
369 -> 370 ;
371 [label="Amount <= 0.048\ngini = 0.397\nsamples = 9\nvalue = [3, 8]\nclass = Fraud", fillcolor="#83c2ef"] ;
369 -> 371 ;
372 [label="gini = 0.0\nsamples = 6\nvalue = [0, 8]\nclass = Fraud", fillcolor="#399de5"] ;
371 -> 372 ;
373 [label="gini = 0.0\nsamples = 3\nvalue = [3, 0]\nclass = No Fraud", fillcolor="#e58139"] ;
371 -> 373 ;
374 [label="gini = 0.0\nsamples = 57\nvalue = [89, 0]\nclass = No Fraud", fillcolor="#e58139"] ;
350 -> 374 ;
375 [label="V4 <= -0.246\ngini = 0.363\nsamples = 71\nvalue = [25, 80]\nclass = Fraud", fillcolor="#77bced"] ;
325 -> 375 ;
376 [label="V27 <= -0.055\ngini = 0.111\nsamples = 56\nvalue = [5, 80]\nclass = Fraud", fillcolor="#45a3e7"] ;
375 -> 376 ;
377 [label="gini = 0.0\nsamples = 4\nvalue = [5, 0]\nclass = No Fraud", fillcolor="#e58139"] ;
376 -> 377 ;
378 [label="gini = 0.0\nsamples = 52\nvalue = [0, 80]\nclass = Fraud", fillcolor="#399de5"] ;
376 -> 378 ;
379 [label="gini = 0.0\nsamples = 15\nvalue = [20, 0]\nclass = No Fraud", fillcolor="#e58139"] ;
375 -> 379 ;
380 [label="V5 <= 1.686\ngini = 0.068\nsamples = 3218\nvalue = [4973, 181]\nclass = No Fraud", fillcolor="#e68640"] ;
290 -> 380 ;
381 [label="V23 <= -0.41\ngini = 0.003\nsamples = 2587\nvalue = [4113, 7]\nclass = No Fraud", fillcolor="#e58139"] ;
380 -> 381 ;
382 [label="V16 <= -0.291\ngini = 0.024\nsamples = 366\nvalue = [576, 7]\nclass = No Fraud", fillcolor="#e5833b"] ;
381 -> 382 ;
383 [label="V2 <= -1.464\ngini = 0.48\nsamples = 6\nvalue = [6, 4]\nclass = No Fraud", fillcolor="#f6d5bd"] ;
382 -> 383 ;
384 [label="gini = 0.0\nsamples = 2\nvalue = [0, 4]\nclass = Fraud", fillcolor="#399de5"] ;
383 -> 384 ;
385 [label="gini = 0.0\nsamples = 4\nvalue = [6, 0]\nclass = No Fraud", fillcolor="#e58139"] ;
383 -> 385 ;
386 [label="V21 <= -1.093\ngini = 0.01\nsamples = 360\nvalue = [570, 3]\nclass = No Fraud", fillcolor="#e5823a"] ;
382 -> 386 ;
387 [label="V23 <= -0.531\ngini = 0.185\nsamples = 21\nvalue = [26, 3]\nclass = No Fraud", fillcolor="#e89050"] ;
386 -> 387 ;
388 [label="gini = 0.0\nsamples = 19\nvalue = [26, 0]\nclass = No Fraud", fillcolor="#e58139"] ;
387 -> 388 ;
389 [label="gini = 0.0\nsamples = 2\nvalue = [0, 3]\nclass = Fraud", fillcolor="#399de5"] ;
387 -> 389 ;
390 [label="gini = 0.0\nsamples = 339\nvalue = [544, 0]\nclass = No Fraud", fillcolor="#e58139"] ;
386 -> 390 ;
391 [label="gini = 0.0\nsamples = 2221\nvalue = [3537, 0]\nclass = No Fraud", fillcolor="#e58139"] ;
381 -> 391 ;
392 [label="V23 <= -0.076\ngini = 0.28\nsamples = 631\nvalue = [860, 174]\nclass = No Fraud", fillcolor="#ea9a61"] ;
380 -> 392 ;
393 [label="V6 <= -0.271\ngini = 0.481\nsamples = 265\nvalue = [259, 174]\nclass = No Fraud", fillcolor="#f6d6be"] ;
392 -> 393 ;
394 [label="gini = 0.0\nsamples = 124\nvalue = [203, 0]\nclass = No Fraud", fillcolor="#e58139"] ;
393 -> 394 ;
395 [label="Amount <= 0.06\ngini = 0.368\nsamples = 141\nvalue = [56, 174]\nclass = Fraud", fillcolor="#79bded"] ;
393 -> 395 ;
396 [label="V17 <= 1.648\ngini = 0.249\nsamples = 39\nvalue = [47, 8]\nclass = No Fraud", fillcolor="#e9965b"] ;
395 -> 396 ;
397 [label="gini = 0.0\nsamples = 32\nvalue = [47, 0]\nclass = No Fraud", fillcolor="#e58139"] ;
396 -> 397 ;
398 [label="gini = 0.0\nsamples = 7\nvalue = [0, 8]\nclass = Fraud", fillcolor="#399de5"] ;
396 -> 398 ;
399 [label="V12 <= 0.382\ngini = 0.098\nsamples = 102\nvalue = [9, 166]\nclass = Fraud", fillcolor="#44a2e6"] ;
395 -> 399 ;
400 [label="V27 <= -0.119\ngini = 0.035\nsamples = 97\nvalue = [3, 166]\nclass = Fraud", fillcolor="#3d9fe5"] ;
399 -> 400 ;
401 [label="gini = 0.0\nsamples = 95\nvalue = [0, 166]\nclass = Fraud", fillcolor="#399de5"] ;
400 -> 401 ;
402 [label="gini = 0.0\nsamples = 2\nvalue = [3, 0]\nclass = No Fraud", fillcolor="#e58139"] ;
400 -> 402 ;
403 [label="gini = 0.0\nsamples = 5\nvalue = [6, 0]\nclass = No Fraud", fillcolor="#e58139"] ;
399 -> 403 ;
404 [label="gini = 0.0\nsamples = 366\nvalue = [601, 0]\nclass = No Fraud", fillcolor="#e58139"] ;
392 -> 404 ;
405 [label="V12 <= 2.391\ngini = 0.338\nsamples = 5987\nvalue = [7414, 2037]\nclass = No Fraud", fillcolor="#eca46f"] ;
129 -> 405 ;
406 [label="V1 <= -0.253\ngini = 0.231\nsamples = 5336\nvalue = [7311, 1126]\nclass = No Fraud", fillcolor="#e99457"] ;
405 -> 406 ;
407 [label="V27 <= -0.095\ngini = 0.474\nsamples = 1191\nvalue = [1153, 723]\nclass = No Fraud", fillcolor="#f5d0b5"] ;
406 -> 407 ;
408 [label="V27 <= -0.193\ngini = 0.455\nsamples = 696\nvalue = [382, 712]\nclass = Fraud", fillcolor="#a3d2f3"] ;
407 -> 408 ;
409 [label="gini = 0.0\nsamples = 208\nvalue = [324, 0]\nclass = No Fraud", fillcolor="#e58139"] ;
408 -> 409 ;
410 [label="V5 <= 2.784\ngini = 0.139\nsamples = 488\nvalue = [58, 712]\nclass = Fraud", fillcolor="#49a5e7"] ;
408 -> 410 ;
411 [label="gini = 0.0\nsamples = 28\nvalue = [47, 0]\nclass = No Fraud", fillcolor="#e58139"] ;
410 -> 411 ;
412 [label="V13 <= -0.446\ngini = 0.03\nsamples = 460\nvalue = [11, 712]\nclass = Fraud", fillcolor="#3c9fe5"] ;
410 -> 412 ;
413 [label="V6 <= -0.087\ngini = 0.008\nsamples = 454\nvalue = [3, 712]\nclass = Fraud", fillcolor="#3a9de5"] ;
412 -> 413 ;
414 [label="gini = 0.0\nsamples = 2\nvalue = [3, 0]\nclass = No Fraud", fillcolor="#e58139"] ;
413 -> 414 ;
415 [label="gini = 0.0\nsamples = 452\nvalue = [0, 712]\nclass = Fraud", fillcolor="#399de5"] ;
413 -> 415 ;
416 [label="gini = 0.0\nsamples = 6\nvalue = [8, 0]\nclass = No Fraud", fillcolor="#e58139"] ;
412 -> 416 ;
417 [label="V24 <= 0.074\ngini = 0.028\nsamples = 495\nvalue = [771, 11]\nclass = No Fraud", fillcolor="#e5833c"] ;
407 -> 417 ;
418 [label="V11 <= -1.195\ngini = 0.444\nsamples = 2\nvalue = [1, 2]\nclass = Fraud", fillcolor="#9ccef2"] ;
417 -> 418 ;
419 [label="gini = 0.0\nsamples = 1\nvalue = [0, 2]\nclass = Fraud", fillcolor="#399de5"] ;
418 -> 419 ;
420 [label="gini = 0.0\nsamples = 1\nvalue = [1, 0]\nclass = No Fraud", fillcolor="#e58139"] ;
418 -> 420 ;
421 [label="V27 <= -0.086\ngini = 0.023\nsamples = 493\nvalue = [770, 9]\nclass = No Fraud", fillcolor="#e5823b"] ;
417 -> 421 ;
422 [label="V21 <= -0.247\ngini = 0.426\nsamples = 9\nvalue = [9, 4]\nclass = No Fraud", fillcolor="#f1b991"] ;
421 -> 422 ;
423 [label="V21 <= -0.378\ngini = 0.444\nsamples = 4\nvalue = [2, 4]\nclass = Fraud", fillcolor="#9ccef2"] ;
422 -> 423 ;
424 [label="gini = 0.0\nsamples = 1\nvalue = [2, 0]\nclass = No Fraud", fillcolor="#e58139"] ;
423 -> 424 ;
425 [label="gini = 0.0\nsamples = 3\nvalue = [0, 4]\nclass = Fraud", fillcolor="#399de5"] ;
423 -> 425 ;
426 [label="gini = 0.0\nsamples = 5\nvalue = [7, 0]\nclass = No Fraud", fillcolor="#e58139"] ;
422 -> 426 ;
427 [label="V18 <= 5.452\ngini = 0.013\nsamples = 484\nvalue = [761, 5]\nclass = No Fraud", fillcolor="#e5823a"] ;
421 -> 427 ;
428 [label="V5 <= 3.717\ngini = 0.01\nsamples = 483\nvalue = [761, 4]\nclass = No Fraud", fillcolor="#e5823a"] ;
427 -> 428 ;
429 [label="gini = 0.0\nsamples = 395\nvalue = [627, 0]\nclass = No Fraud", fillcolor="#e58139"] ;
428 -> 429 ;
430 [label="Amount <= -0.077\ngini = 0.056\nsamples = 88\nvalue = [134, 4]\nclass = No Fraud", fillcolor="#e6853f"] ;
428 -> 430 ;
431 [label="gini = 0.0\nsamples = 4\nvalue = [0, 4]\nclass = Fraud", fillcolor="#399de5"] ;
430 -> 431 ;
432 [label="gini = 0.0\nsamples = 84\nvalue = [134, 0]\nclass = No Fraud", fillcolor="#e58139"] ;
430 -> 432 ;
433 [label="gini = 0.0\nsamples = 1\nvalue = [0, 1]\nclass = Fraud", fillcolor="#399de5"] ;
427 -> 433 ;
434 [label="Amount <= -0.053\ngini = 0.115\nsamples = 4145\nvalue = [6158, 403]\nclass = No Fraud", fillcolor="#e78946"] ;
406 -> 434 ;
435 [label="V26 <= -0.16\ngini = 0.298\nsamples = 1078\nvalue = [1394, 311]\nclass = No Fraud", fillcolor="#eb9d65"] ;
434 -> 435 ;
436 [label="V25 <= 0.238\ngini = 0.005\nsamples = 478\nvalue = [762, 2]\nclass = No Fraud", fillcolor="#e5813a"] ;
435 -> 436 ;
437 [label="gini = 0.0\nsamples = 390\nvalue = [633, 0]\nclass = No Fraud", fillcolor="#e58139"] ;
436 -> 437 ;
438 [label="Amount <= -0.611\ngini = 0.03\nsamples = 88\nvalue = [129, 2]\nclass = No Fraud", fillcolor="#e5833c"] ;
436 -> 438 ;
439 [label="V9 <= -1.053\ngini = 0.245\nsamples = 9\nvalue = [12, 2]\nclass = No Fraud", fillcolor="#e9965a"] ;
438 -> 439 ;
440 [label="V1 <= 5.509\ngini = 0.444\nsamples = 3\nvalue = [1, 2]\nclass = Fraud", fillcolor="#9ccef2"] ;
439 -> 440 ;
441 [label="gini = 0.0\nsamples = 1\nvalue = [1, 0]\nclass = No Fraud", fillcolor="#e58139"] ;
440 -> 441 ;
442 [label="gini = 0.0\nsamples = 2\nvalue = [0, 2]\nclass = Fraud", fillcolor="#399de5"] ;
440 -> 442 ;
443 [label="gini = 0.0\nsamples = 6\nvalue = [11, 0]\nclass = No Fraud", fillcolor="#e58139"] ;
439 -> 443 ;
444 [label="gini = 0.0\nsamples = 79\nvalue = [117, 0]\nclass = No Fraud", fillcolor="#e58139"] ;
438 -> 444 ;
445 [label="V5 <= 3.251\ngini = 0.441\nsamples = 600\nvalue = [632, 309]\nclass = No Fraud", fillcolor="#f2bf9a"] ;
435 -> 445 ;
446 [label="V16 <= -1.314\ngini = 0.004\nsamples = 353\nvalue = [532, 1]\nclass = No Fraud", fillcolor="#e58139"] ;
445 -> 446 ;
447 [label="V8 <= 4.295\ngini = 0.034\nsamples = 37\nvalue = [56, 1]\nclass = No Fraud", fillcolor="#e5833d"] ;
446 -> 447 ;
448 [label="gini = 0.0\nsamples = 34\nvalue = [52, 0]\nclass = No Fraud", fillcolor="#e58139"] ;
447 -> 448 ;
449 [label="V1 <= 17.552\ngini = 0.32\nsamples = 3\nvalue = [4, 1]\nclass = No Fraud", fillcolor="#eca06a"] ;
447 -> 449 ;
450 [label="gini = 0.0\nsamples = 1\nvalue = [0, 1]\nclass = Fraud", fillcolor="#399de5"] ;
449 -> 450 ;
451 [label="gini = 0.0\nsamples = 2\nvalue = [4, 0]\nclass = No Fraud", fillcolor="#e58139"] ;
449 -> 451 ;
452 [label="gini = 0.0\nsamples = 316\nvalue = [476, 0]\nclass = No Fraud", fillcolor="#e58139"] ;
446 -> 452 ;
453 [label="V12 <= -0.325\ngini = 0.37\nsamples = 247\nvalue = [100, 308]\nclass = Fraud", fillcolor="#79bded"] ;
445 -> 453 ;
454 [label="gini = 0.0\nsamples = 42\nvalue = [65, 0]\nclass = No Fraud", fillcolor="#e58139"] ;
453 -> 454 ;
455 [label="V6 <= 1.169\ngini = 0.183\nsamples = 205\nvalue = [35, 308]\nclass = Fraud", fillcolor="#50a8e8"] ;
453 -> 455 ;
456 [label="V25 <= 0.446\ngini = 0.125\nsamples = 194\nvalue = [22, 306]\nclass = Fraud", fillcolor="#47a4e7"] ;
455 -> 456 ;
457 [label="V7 <= 0.223\ngini = 0.044\nsamples = 187\nvalue = [7, 306]\nclass = Fraud", fillcolor="#3e9fe6"] ;
456 -> 457 ;
458 [label="V5 <= 3.917\ngini = 0.346\nsamples = 5\nvalue = [7, 2]\nclass = No Fraud", fillcolor="#eca572"] ;
457 -> 458 ;
459 [label="gini = 0.0\nsamples = 3\nvalue = [6, 0]\nclass = No Fraud", fillcolor="#e58139"] ;
458 -> 459 ;
460 [label="V7 <= -0.12\ngini = 0.444\nsamples = 2\nvalue = [1, 2]\nclass = Fraud", fillcolor="#9ccef2"] ;
458 -> 460 ;
461 [label="gini = 0.0\nsamples = 1\nvalue = [1, 0]\nclass = No Fraud", fillcolor="#e58139"] ;
460 -> 461 ;
462 [label="gini = 0.0\nsamples = 1\nvalue = [0, 2]\nclass = Fraud", fillcolor="#399de5"] ;
460 -> 462 ;
463 [label="gini = 0.0\nsamples = 182\nvalue = [0, 304]\nclass = Fraud", fillcolor="#399de5"] ;
457 -> 463 ;
464 [label="gini = 0.0\nsamples = 7\nvalue = [15, 0]\nclass = No Fraud", fillcolor="#e58139"] ;
456 -> 464 ;
465 [label="V16 <= -2.32\ngini = 0.231\nsamples = 11\nvalue = [13, 2]\nclass = No Fraud", fillcolor="#e99457"] ;
455 -> 465 ;
466 [label="gini = 0.0\nsamples = 2\nvalue = [0, 2]\nclass = Fraud", fillcolor="#399de5"] ;
465 -> 466 ;
467 [label="gini = 0.0\nsamples = 9\nvalue = [13, 0]\nclass = No Fraud", fillcolor="#e58139"] ;
465 -> 467 ;
468 [label="V24 <= 0.089\ngini = 0.037\nsamples = 3067\nvalue = [4764, 92]\nclass = No Fraud", fillcolor="#e6833d"] ;
434 -> 468 ;
469 [label="V22 <= -0.123\ngini = 0.335\nsamples = 268\nvalue = [341, 92]\nclass = No Fraud", fillcolor="#eca36e"] ;
468 -> 469 ;
470 [label="V5 <= 3.101\ngini = 0.495\nsamples = 110\nvalue = [103, 84]\nclass = No Fraud", fillcolor="#fae8da"] ;
469 -> 470 ;
471 [label="gini = 0.0\nsamples = 57\nvalue = [96, 0]\nclass = No Fraud", fillcolor="#e58139"] ;
470 -> 471 ;
472 [label="V9 <= -0.075\ngini = 0.142\nsamples = 53\nvalue = [7, 84]\nclass = Fraud", fillcolor="#49a5e7"] ;
470 -> 472 ;
473 [label="gini = 0.0\nsamples = 3\nvalue = [7, 0]\nclass = No Fraud", fillcolor="#e58139"] ;
472 -> 473 ;
474 [label="gini = 0.0\nsamples = 50\nvalue = [0, 84]\nclass = Fraud", fillcolor="#399de5"] ;
472 -> 474 ;
475 [label="V10 <= 0.945\ngini = 0.063\nsamples = 158\nvalue = [238, 8]\nclass = No Fraud", fillcolor="#e68540"] ;
469 -> 475 ;
476 [label="gini = 0.0\nsamples = 138\nvalue = [216, 0]\nclass = No Fraud", fillcolor="#e58139"] ;
475 -> 476 ;
477 [label="V12 <= 0.633\ngini = 0.391\nsamples = 20\nvalue = [22, 8]\nclass = No Fraud", fillcolor="#eeaf81"] ;
475 -> 477 ;
478 [label="gini = 0.0\nsamples = 10\nvalue = [19, 0]\nclass = No Fraud", fillcolor="#e58139"] ;
477 -> 478 ;
479 [label="V16 <= -0.967\ngini = 0.397\nsamples = 10\nvalue = [3, 8]\nclass = Fraud", fillcolor="#83c2ef"] ;
477 -> 479 ;
480 [label="gini = 0.0\nsamples = 7\nvalue = [0, 8]\nclass = Fraud", fillcolor="#399de5"] ;
479 -> 480 ;
481 [label="gini = 0.0\nsamples = 3\nvalue = [3, 0]\nclass = No Fraud", fillcolor="#e58139"] ;
479 -> 481 ;
482 [label="gini = 0.0\nsamples = 2799\nvalue = [4423, 0]\nclass = No Fraud", fillcolor="#e58139"] ;
468 -> 482 ;
483 [label="V14 <= -0.635\ngini = 0.183\nsamples = 651\nvalue = [103, 911]\nclass = Fraud", fillcolor="#4fa8e8"] ;
405 -> 483 ;
484 [label="V27 <= -0.138\ngini = 0.034\nsamples = 595\nvalue = [16, 911]\nclass = Fraud", fillcolor="#3c9fe5"] ;
483 -> 484 ;
485 [label="gini = 0.0\nsamples = 6\nvalue = [8, 0]\nclass = No Fraud", fillcolor="#e58139"] ;
484 -> 485 ;
486 [label="V16 <= 0.818\ngini = 0.017\nsamples = 589\nvalue = [8, 911]\nclass = Fraud", fillcolor="#3b9ee5"] ;
484 -> 486 ;
487 [label="gini = 0.0\nsamples = 586\nvalue = [0, 911]\nclass = Fraud", fillcolor="#399de5"] ;
486 -> 487 ;
488 [label="gini = 0.0\nsamples = 3\nvalue = [8, 0]\nclass = No Fraud", fillcolor="#e58139"] ;
486 -> 488 ;
489 [label="gini = 0.0\nsamples = 56\nvalue = [87, 0]\nclass = No Fraud", fillcolor="#e58139"] ;
483 -> 489 ;
490 [label="V13 <= -3.47\ngini = 0.214\nsamples = 149395\nvalue = [207460, 28714]\nclass = No Fraud", fillcolor="#e99254"] ;
128 -> 490 ;
491 [label="V11 <= -1.702\ngini = 0.165\nsamples = 3631\nvalue = [515, 5175]\nclass = Fraud", fillcolor="#4da7e8"] ;
490 -> 491 ;
492 [label="V8 <= 0.261\ngini = 0.003\nsamples = 3265\nvalue = [7, 5113]\nclass = Fraud", fillcolor="#399de5"] ;
491 -> 492 ;
493 [label="gini = 0.0\nsamples = 3261\nvalue = [0, 5113]\nclass = Fraud", fillcolor="#399de5"] ;
492 -> 493 ;
494 [label="gini = 0.0\nsamples = 4\nvalue = [7, 0]\nclass = No Fraud", fillcolor="#e58139"] ;
492 -> 494 ;
495 [label="V8 <= -2.697\ngini = 0.194\nsamples = 366\nvalue = [508, 62]\nclass = No Fraud", fillcolor="#e89051"] ;
491 -> 495 ;
496 [label="gini = 0.0\nsamples = 39\nvalue = [0, 62]\nclass = Fraud", fillcolor="#399de5"] ;
495 -> 496 ;
497 [label="gini = 0.0\nsamples = 327\nvalue = [508, 0]\nclass = No Fraud", fillcolor="#e58139"] ;
495 -> 497 ;
498 [label="V13 <= -0.078\ngini = 0.183\nsamples = 145764\nvalue = [206945, 23539]\nclass = No Fraud", fillcolor="#e88f50"] ;
490 -> 498 ;
499 [label="V5 <= 0.713\ngini = 0.292\nsamples = 60273\nvalue = [78442, 16912]\nclass = No Fraud", fillcolor="#eb9c64"] ;
498 -> 499 ;
500 [label="V8 <= 2.672\ngini = 0.112\nsamples = 42089\nvalue = [62667, 3962]\nclass = No Fraud", fillcolor="#e78946"] ;
499 -> 500 ;
501 [label="V11 <= 0.471\ngini = 0.076\nsamples = 40801\nvalue = [62018, 2546]\nclass = No Fraud", fillcolor="#e68641"] ;
500 -> 501 ;
502 [label="V22 <= 5.167\ngini = 0.117\nsamples = 25972\nvalue = [38442, 2546]\nclass = No Fraud", fillcolor="#e78946"] ;
501 -> 502 ;
503 [label="V18 <= 0.761\ngini = 0.109\nsamples = 25838\nvalue = [38423, 2354]\nclass = No Fraud", fillcolor="#e78945"] ;
502 -> 503 ;
504 [label="V9 <= -0.224\ngini = 0.023\nsamples = 20179\nvalue = [31492, 363]\nclass = No Fraud", fillcolor="#e5823b"] ;
503 -> 504 ;
505 [label="V21 <= -0.683\ngini = 0.07\nsamples = 5115\nvalue = [7769, 294]\nclass = No Fraud", fillcolor="#e68640"] ;
504 -> 505 ;
506 [label="V1 <= 3.436\ngini = 0.451\nsamples = 233\nvalue = [235, 123]\nclass = No Fraud", fillcolor="#f3c3a1"] ;
505 -> 506 ;
507 [label="gini = 0.0\nsamples = 116\nvalue = [178, 0]\nclass = No Fraud", fillcolor="#e58139"] ;
506 -> 507 ;
508 [label="V5 <= -0.758\ngini = 0.433\nsamples = 117\nvalue = [57, 123]\nclass = Fraud", fillcolor="#95caf1"] ;
506 -> 508 ;
509 [label="gini = 0.0\nsamples = 20\nvalue = [38, 0]\nclass = No Fraud", fillcolor="#e58139"] ;
508 -> 509 ;
510 [label="Time <= -0.121\ngini = 0.232\nsamples = 97\nvalue = [19, 123]\nclass = Fraud", fillcolor="#58ace9"] ;
508 -> 510 ;
511 [label="V21 <= -1.736\ngini = 0.031\nsamples = 85\nvalue = [2, 123]\nclass = Fraud", fillcolor="#3c9fe5"] ;
510 -> 511 ;
512 [label="gini = 0.0\nsamples = 1\nvalue = [1, 0]\nclass = No Fraud", fillcolor="#e58139"] ;
511 -> 512 ;
513 [label="V10 <= 1.757\ngini = 0.016\nsamples = 84\nvalue = [1, 123]\nclass = Fraud", fillcolor="#3b9ee5"] ;
511 -> 513 ;
514 [label="gini = 0.0\nsamples = 83\nvalue = [0, 123]\nclass = Fraud", fillcolor="#399de5"] ;
513 -> 514 ;
515 [label="gini = 0.0\nsamples = 1\nvalue = [1, 0]\nclass = No Fraud", fillcolor="#e58139"] ;
513 -> 515 ;
516 [label="gini = 0.0\nsamples = 12\nvalue = [17, 0]\nclass = No Fraud", fillcolor="#e58139"] ;
510 -> 516 ;
517 [label="Time <= -0.2\ngini = 0.043\nsamples = 4882\nvalue = [7534, 171]\nclass = No Fraud", fillcolor="#e6843d"] ;
505 -> 517 ;
518 [label="V1 <= 3.934\ngini = 0.172\nsamples = 1153\nvalue = [1626, 171]\nclass = No Fraud", fillcolor="#e88e4e"] ;
517 -> 518 ;
519 [label="gini = 0.0\nsamples = 937\nvalue = [1475, 0]\nclass = No Fraud", fillcolor="#e58139"] ;
518 -> 519 ;
520 [label="V21 <= 0.64\ngini = 0.498\nsamples = 216\nvalue = [151, 171]\nclass = Fraud", fillcolor="#e8f4fc"] ;
518 -> 520 ;
521 [label="V8 <= 0.84\ngini = 0.381\nsamples = 159\nvalue = [59, 171]\nclass = Fraud", fillcolor="#7dbfee"] ;
520 -> 521 ;
522 [label="gini = 0.0\nsamples = 11\nvalue = [19, 0]\nclass = No Fraud", fillcolor="#e58139"] ;
521 -> 522 ;
523 [label="V28 <= 0.124\ngini = 0.307\nsamples = 148\nvalue = [40, 171]\nclass = Fraud", fillcolor="#67b4eb"] ;
521 -> 523 ;
524 [label="V18 <= -0.112\ngini = 0.187\nsamples = 134\nvalue = [20, 171]\nclass = Fraud", fillcolor="#50a8e8"] ;
523 -> 524 ;
525 [label="gini = 0.0\nsamples = 8\nvalue = [14, 0]\nclass = No Fraud", fillcolor="#e58139"] ;
524 -> 525 ;
526 [label="V4 <= 1.231\ngini = 0.065\nsamples = 126\nvalue = [6, 171]\nclass = Fraud", fillcolor="#40a0e6"] ;
524 -> 526 ;
527 [label="V24 <= -0.268\ngini = 0.012\nsamples = 122\nvalue = [1, 171]\nclass = Fraud", fillcolor="#3a9ee5"] ;
526 -> 527 ;
528 [label="gini = 0.0\nsamples = 1\nvalue = [1, 0]\nclass = No Fraud", fillcolor="#e58139"] ;
527 -> 528 ;
529 [label="gini = 0.0\nsamples = 121\nvalue = [0, 171]\nclass = Fraud", fillcolor="#399de5"] ;
527 -> 529 ;
530 [label="gini = 0.0\nsamples = 4\nvalue = [5, 0]\nclass = No Fraud", fillcolor="#e58139"] ;
526 -> 530 ;
531 [label="gini = 0.0\nsamples = 14\nvalue = [20, 0]\nclass = No Fraud", fillcolor="#e58139"] ;
523 -> 531 ;
532 [label="gini = 0.0\nsamples = 57\nvalue = [92, 0]\nclass = No Fraud", fillcolor="#e58139"] ;
520 -> 532 ;
533 [label="gini = 0.0\nsamples = 3729\nvalue = [5908, 0]\nclass = No Fraud", fillcolor="#e58139"] ;
517 -> 533 ;
534 [label="V18 <= 0.726\ngini = 0.006\nsamples = 15064\nvalue = [23723, 69]\nclass = No Fraud", fillcolor="#e5813a"] ;
504 -> 534 ;
535 [label="V21 <= 0.639\ngini = 0.003\nsamples = 14851\nvalue = [23394, 40]\nclass = No Fraud", fillcolor="#e58139"] ;
534 -> 535 ;
536 [label="V15 <= -0.771\ngini = 0.002\nsamples = 14291\nvalue = [22515, 17]\nclass = No Fraud", fillcolor="#e58139"] ;
535 -> 536 ;
537 [label="V12 <= 0.244\ngini = 0.014\nsamples = 1545\nvalue = [2452, 17]\nclass = No Fraud", fillcolor="#e5823a"] ;
536 -> 537 ;
538 [label="gini = 0.0\nsamples = 1208\nvalue = [1919, 0]\nclass = No Fraud", fillcolor="#e58139"] ;
537 -> 538 ;
539 [label="V17 <= 0.348\ngini = 0.06\nsamples = 337\nvalue = [533, 17]\nclass = No Fraud", fillcolor="#e6853f"] ;
537 -> 539 ;
540 [label="V17 <= 0.251\ngini = 0.28\nsamples = 62\nvalue = [84, 17]\nclass = No Fraud", fillcolor="#ea9a61"] ;
539 -> 540 ;
541 [label="Amount <= 0.01\ngini = 0.025\nsamples = 45\nvalue = [77, 1]\nclass = No Fraud", fillcolor="#e5833c"] ;
540 -> 541 ;
542 [label="gini = 0.0\nsamples = 34\nvalue = [62, 0]\nclass = No Fraud", fillcolor="#e58139"] ;
541 -> 542 ;
543 [label="V20 <= 0.353\ngini = 0.117\nsamples = 11\nvalue = [15, 1]\nclass = No Fraud", fillcolor="#e78946"] ;
541 -> 543 ;
544 [label="gini = 0.0\nsamples = 9\nvalue = [14, 0]\nclass = No Fraud", fillcolor="#e58139"] ;
543 -> 544 ;
545 [label="V19 <= 0.433\ngini = 0.5\nsamples = 2\nvalue = [1, 1]\nclass = No Fraud", fillcolor="#ffffff"] ;
543 -> 545 ;
546 [label="gini = 0.0\nsamples = 1\nvalue = [0, 1]\nclass = Fraud", fillcolor="#399de5"] ;
545 -> 546 ;
547 [label="gini = 0.0\nsamples = 1\nvalue = [1, 0]\nclass = No Fraud", fillcolor="#e58139"] ;
545 -> 547 ;
548 [label="V9 <= 0.022\ngini = 0.423\nsamples = 17\nvalue = [7, 16]\nclass = Fraud", fillcolor="#90c8f0"] ;
540 -> 548 ;
549 [label="gini = 0.0\nsamples = 4\nvalue = [6, 0]\nclass = No Fraud", fillcolor="#e58139"] ;
548 -> 549 ;
550 [label="V9 <= 0.374\ngini = 0.111\nsamples = 13\nvalue = [1, 16]\nclass = Fraud", fillcolor="#45a3e7"] ;
548 -> 550 ;
551 [label="gini = 0.0\nsamples = 12\nvalue = [0, 16]\nclass = Fraud", fillcolor="#399de5"] ;
550 -> 551 ;
552 [label="gini = 0.0\nsamples = 1\nvalue = [1, 0]\nclass = No Fraud", fillcolor="#e58139"] ;
550 -> 552 ;
553 [label="gini = 0.0\nsamples = 275\nvalue = [449, 0]\nclass = No Fraud", fillcolor="#e58139"] ;
539 -> 553 ;
554 [label="gini = 0.0\nsamples = 12746\nvalue = [20063, 0]\nclass = No Fraud", fillcolor="#e58139"] ;
536 -> 554 ;
555 [label="V17 <= -0.223\ngini = 0.05\nsamples = 560\nvalue = [879, 23]\nclass = No Fraud", fillcolor="#e6843e"] ;
535 -> 555 ;
556 [label="V17 <= -0.268\ngini = 0.32\nsamples = 69\nvalue = [92, 23]\nclass = No Fraud", fillcolor="#eca06a"] ;
555 -> 556 ;
557 [label="V5 <= 0.656\ngini = 0.062\nsamples = 58\nvalue = [91, 3]\nclass = No Fraud", fillcolor="#e68540"] ;
556 -> 557 ;
558 [label="gini = 0.0\nsamples = 53\nvalue = [88, 0]\nclass = No Fraud", fillcolor="#e58139"] ;
557 -> 558 ;
559 [label="V26 <= 0.048\ngini = 0.5\nsamples = 5\nvalue = [3, 3]\nclass = No Fraud", fillcolor="#ffffff"] ;
557 -> 559 ;
560 [label="gini = 0.0\nsamples = 2\nvalue = [0, 3]\nclass = Fraud", fillcolor="#399de5"] ;
559 -> 560 ;
561 [label="gini = 0.0\nsamples = 3\nvalue = [3, 0]\nclass = No Fraud", fillcolor="#e58139"] ;
559 -> 561 ;
562 [label="V21 <= 1.317\ngini = 0.091\nsamples = 11\nvalue = [1, 20]\nclass = Fraud", fillcolor="#43a2e6"] ;
556 -> 562 ;
563 [label="gini = 0.0\nsamples = 10\nvalue = [0, 20]\nclass = Fraud", fillcolor="#399de5"] ;
562 -> 563 ;
564 [label="gini = 0.0\nsamples = 1\nvalue = [1, 0]\nclass = No Fraud", fillcolor="#e58139"] ;
562 -> 564 ;
565 [label="gini = 0.0\nsamples = 491\nvalue = [787, 0]\nclass = No Fraud", fillcolor="#e58139"] ;
555 -> 565 ;
566 [label="V18 <= 0.727\ngini = 0.149\nsamples = 213\nvalue = [329, 29]\nclass = No Fraud", fillcolor="#e78c4a"] ;
534 -> 566 ;
567 [label="V26 <= 0.457\ngini = 0.346\nsamples = 5\nvalue = [2, 7]\nclass = Fraud", fillcolor="#72b9ec"] ;
566 -> 567 ;
568 [label="gini = 0.0\nsamples = 2\nvalue = [2, 0]\nclass = No Fraud", fillcolor="#e58139"] ;
567 -> 568 ;
569 [label="gini = 0.0\nsamples = 3\nvalue = [0, 7]\nclass = Fraud", fillcolor="#399de5"] ;
567 -> 569 ;
570 [label="V5 <= 0.676\ngini = 0.118\nsamples = 208\nvalue = [327, 22]\nclass = No Fraud", fillcolor="#e78946"] ;
566 -> 570 ;
571 [label="V11 <= 0.344\ngini = 0.094\nsamples = 206\nvalue = [327, 17]\nclass = No Fraud", fillcolor="#e68843"] ;
570 -> 571 ;
572 [label="V5 <= 0.453\ngini = 0.043\nsamples = 187\nvalue = [310, 7]\nclass = No Fraud", fillcolor="#e6843d"] ;
571 -> 572 ;
573 [label="gini = 0.0\nsamples = 170\nvalue = [289, 0]\nclass = No Fraud", fillcolor="#e58139"] ;
572 -> 573 ;
574 [label="V18 <= 0.749\ngini = 0.375\nsamples = 17\nvalue = [21, 7]\nclass = No Fraud", fillcolor="#eeab7b"] ;
572 -> 574 ;
575 [label="gini = 0.0\nsamples = 10\nvalue = [18, 0]\nclass = No Fraud", fillcolor="#e58139"] ;
574 -> 575 ;
576 [label="V8 <= 0.041\ngini = 0.42\nsamples = 7\nvalue = [3, 7]\nclass = Fraud", fillcolor="#8ec7f0"] ;
574 -> 576 ;
577 [label="gini = 0.0\nsamples = 5\nvalue = [0, 7]\nclass = Fraud", fillcolor="#399de5"] ;
576 -> 577 ;
578 [label="gini = 0.0\nsamples = 2\nvalue = [3, 0]\nclass = No Fraud", fillcolor="#e58139"] ;
576 -> 578 ;
579 [label="Time <= -0.216\ngini = 0.466\nsamples = 19\nvalue = [17, 10]\nclass = No Fraud", fillcolor="#f4cbad"] ;
571 -> 579 ;
580 [label="gini = 0.0\nsamples = 9\nvalue = [13, 0]\nclass = No Fraud", fillcolor="#e58139"] ;
579 -> 580 ;
581 [label="Time <= -0.205\ngini = 0.408\nsamples = 10\nvalue = [4, 10]\nclass = Fraud", fillcolor="#88c4ef"] ;
579 -> 581 ;
582 [label="gini = 0.0\nsamples = 7\nvalue = [0, 10]\nclass = Fraud", fillcolor="#399de5"] ;
581 -> 582 ;
583 [label="gini = 0.0\nsamples = 3\nvalue = [4, 0]\nclass = No Fraud", fillcolor="#e58139"] ;
581 -> 583 ;
584 [label="gini = 0.0\nsamples = 2\nvalue = [0, 5]\nclass = Fraud", fillcolor="#399de5"] ;
570 -> 584 ;
585 [label="V6 <= -0.629\ngini = 0.347\nsamples = 5659\nvalue = [6931, 1991]\nclass = No Fraud", fillcolor="#eca572"] ;
503 -> 585 ;
586 [label="V13 <= -0.304\ngini = 0.016\nsamples = 1405\nvalue = [2172, 18]\nclass = No Fraud", fillcolor="#e5823b"] ;
585 -> 586 ;
587 [label="gini = 0.0\nsamples = 1194\nvalue = [1847, 0]\nclass = No Fraud", fillcolor="#e58139"] ;
586 -> 587 ;
588 [label="V23 <= -0.29\ngini = 0.099\nsamples = 211\nvalue = [325, 18]\nclass = No Fraud", fillcolor="#e68844"] ;
586 -> 588 ;
589 [label="V15 <= -0.976\ngini = 0.493\nsamples = 28\nvalue = [23, 18]\nclass = No Fraud", fillcolor="#f9e4d4"] ;
588 -> 589 ;
590 [label="Time <= -0.269\ngini = 0.188\nsamples = 13\nvalue = [2, 17]\nclass = Fraud", fillcolor="#50a9e8"] ;
589 -> 590 ;
591 [label="gini = 0.0\nsamples = 2\nvalue = [2, 0]\nclass = No Fraud", fillcolor="#e58139"] ;
590 -> 591 ;
592 [label="gini = 0.0\nsamples = 11\nvalue = [0, 17]\nclass = Fraud", fillcolor="#399de5"] ;
590 -> 592 ;
593 [label="V11 <= 0.323\ngini = 0.087\nsamples = 15\nvalue = [21, 1]\nclass = No Fraud", fillcolor="#e68742"] ;
589 -> 593 ;
594 [label="gini = 0.0\nsamples = 12\nvalue = [18, 0]\nclass = No Fraud", fillcolor="#e58139"] ;
593 -> 594 ;
595 [label="V3 <= -1.125\ngini = 0.375\nsamples = 3\nvalue = [3, 1]\nclass = No Fraud", fillcolor="#eeab7b"] ;
593 -> 595 ;
596 [label="gini = 0.0\nsamples = 2\nvalue = [3, 0]\nclass = No Fraud", fillcolor="#e58139"] ;
595 -> 596 ;
597 [label="gini = 0.0\nsamples = 1\nvalue = [0, 1]\nclass = Fraud", fillcolor="#399de5"] ;
595 -> 597 ;
598 [label="gini = 0.0\nsamples = 183\nvalue = [302, 0]\nclass = No Fraud", fillcolor="#e58139"] ;
588 -> 598 ;
599 [label="V26 <= -0.193\ngini = 0.414\nsamples = 4254\nvalue = [4759, 1973]\nclass = No Fraud", fillcolor="#f0b58b"] ;
585 -> 599 ;
600 [label="V26 <= -0.363\ngini = 0.148\nsamples = 1181\nvalue = [1730, 152]\nclass = No Fraud", fillcolor="#e78c4a"] ;
599 -> 600 ;
601 [label="V10 <= -0.785\ngini = 0.017\nsamples = 663\nvalue = [1057, 9]\nclass = No Fraud", fillcolor="#e5823b"] ;
600 -> 601 ;
602 [label="V26 <= -0.411\ngini = 0.087\nsamples = 116\nvalue = [189, 9]\nclass = No Fraud", fillcolor="#e68742"] ;
601 -> 602 ;
603 [label="gini = 0.0\nsamples = 99\nvalue = [170, 0]\nclass = No Fraud", fillcolor="#e58139"] ;
602 -> 603 ;
604 [label="V9 <= -0.626\ngini = 0.436\nsamples = 17\nvalue = [19, 9]\nclass = No Fraud", fillcolor="#f1bd97"] ;
602 -> 604 ;
605 [label="gini = 0.0\nsamples = 6\nvalue = [0, 9]\nclass = Fraud", fillcolor="#399de5"] ;
604 -> 605 ;
606 [label="gini = 0.0\nsamples = 11\nvalue = [19, 0]\nclass = No Fraud", fillcolor="#e58139"] ;
604 -> 606 ;
607 [label="gini = 0.0\nsamples = 547\nvalue = [868, 0]\nclass = No Fraud", fillcolor="#e58139"] ;
601 -> 607 ;
608 [label="V8 <= -0.238\ngini = 0.289\nsamples = 518\nvalue = [673, 143]\nclass = No Fraud", fillcolor="#eb9c63"] ;
600 -> 608 ;
609 [label="V20 <= 0.417\ngini = 0.494\nsamples = 133\nvalue = [121, 97]\nclass = No Fraud", fillcolor="#fae6d8"] ;
608 -> 609 ;
610 [label="gini = 0.0\nsamples = 61\nvalue = [99, 0]\nclass = No Fraud", fillcolor="#e58139"] ;
609 -> 610 ;
611 [label="V8 <= -1.085\ngini = 0.301\nsamples = 72\nvalue = [22, 97]\nclass = Fraud", fillcolor="#66b3eb"] ;
609 -> 611 ;
612 [label="gini = 0.0\nsamples = 4\nvalue = [11, 0]\nclass = No Fraud", fillcolor="#e58139"] ;
611 -> 612 ;
613 [label="V2 <= -0.68\ngini = 0.183\nsamples = 68\nvalue = [11, 97]\nclass = Fraud", fillcolor="#4fa8e8"] ;
611 -> 613 ;
614 [label="gini = 0.0\nsamples = 4\nvalue = [8, 0]\nclass = No Fraud", fillcolor="#e58139"] ;
613 -> 614 ;
615 [label="V13 <= -0.539\ngini = 0.058\nsamples = 64\nvalue = [3, 97]\nclass = Fraud", fillcolor="#3fa0e6"] ;
613 -> 615 ;
616 [label="gini = 0.0\nsamples = 3\nvalue = [3, 0]\nclass = No Fraud", fillcolor="#e58139"] ;
615 -> 616 ;
617 [label="gini = 0.0\nsamples = 61\nvalue = [0, 97]\nclass = Fraud", fillcolor="#399de5"] ;
615 -> 617 ;
618 [label="V10 <= -0.212\ngini = 0.142\nsamples = 385\nvalue = [552, 46]\nclass = No Fraud", fillcolor="#e78c49"] ;
608 -> 618 ;
619 [label="V10 <= -0.253\ngini = 0.355\nsamples = 134\nvalue = [153, 46]\nclass = No Fraud", fillcolor="#eda775"] ;
618 -> 619 ;
620 [label="V15 <= -0.503\ngini = 0.013\nsamples = 97\nvalue = [150, 1]\nclass = No Fraud", fillcolor="#e5823a"] ;
619 -> 620 ;
621 [label="gini = 0.0\nsamples = 79\nvalue = [127, 0]\nclass = No Fraud", fillcolor="#e58139"] ;
620 -> 621 ;
622 [label="V26 <= -0.363\ngini = 0.08\nsamples = 18\nvalue = [23, 1]\nclass = No Fraud", fillcolor="#e68642"] ;
620 -> 622 ;
623 [label="gini = 0.0\nsamples = 1\nvalue = [0, 1]\nclass = Fraud", fillcolor="#399de5"] ;
622 -> 623 ;
624 [label="gini = 0.0\nsamples = 17\nvalue = [23, 0]\nclass = No Fraud", fillcolor="#e58139"] ;
622 -> 624 ;
625 [label="V8 <= 0.564\ngini = 0.117\nsamples = 37\nvalue = [3, 45]\nclass = Fraud", fillcolor="#46a4e7"] ;
619 -> 625 ;
626 [label="gini = 0.0\nsamples = 3\nvalue = [3, 0]\nclass = No Fraud", fillcolor="#e58139"] ;
625 -> 626 ;
627 [label="gini = 0.0\nsamples = 34\nvalue = [0, 45]\nclass = Fraud", fillcolor="#399de5"] ;
625 -> 627 ;
628 [label="gini = 0.0\nsamples = 251\nvalue = [399, 0]\nclass = No Fraud", fillcolor="#e58139"] ;
618 -> 628 ;
629 [label="V27 <= 0.233\ngini = 0.469\nsamples = 3073\nvalue = [3029, 1821]\nclass = No Fraud", fillcolor="#f5cdb0"] ;
599 -> 629 ;
630 [label="V7 <= 0.723\ngini = 0.499\nsamples = 2376\nvalue = [1984, 1795]\nclass = No Fraud", fillcolor="#fdf3ec"] ;
629 -> 630 ;
631 [label="V5 <= -0.753\ngini = 0.497\nsamples = 2110\nvalue = [1551, 1795]\nclass = Fraud", fillcolor="#e4f2fb"] ;
630 -> 631 ;
632 [label="gini = 0.0\nsamples = 363\nvalue = [566, 0]\nclass = No Fraud", fillcolor="#e58139"] ;
631 -> 632 ;
633 [label="V12 <= -0.438\ngini = 0.458\nsamples = 1747\nvalue = [985, 1795]\nclass = Fraud", fillcolor="#a6d3f3"] ;
631 -> 633 ;
634 [label="gini = 0.0\nsamples = 278\nvalue = [449, 0]\nclass = No Fraud", fillcolor="#e58139"] ;
633 -> 634 ;
635 [label="V15 <= -0.241\ngini = 0.354\nsamples = 1469\nvalue = [536, 1795]\nclass = Fraud", fillcolor="#74baed"] ;
633 -> 635 ;
636 [label="V13 <= -0.863\ngini = 0.265\nsamples = 1327\nvalue = [335, 1795]\nclass = Fraud", fillcolor="#5eafea"] ;
635 -> 636 ;
637 [label="gini = 0.0\nsamples = 37\nvalue = [63, 0]\nclass = No Fraud", fillcolor="#e58139"] ;
636 -> 637 ;
638 [label="V21 <= -0.212\ngini = 0.229\nsamples = 1290\nvalue = [272, 1795]\nclass = Fraud", fillcolor="#57ace9"] ;
636 -> 638 ;
639 [label="gini = 0.0\nsamples = 23\nvalue = [38, 0]\nclass = No Fraud", fillcolor="#e58139"] ;
638 -> 639 ;
640 [label="V15 <= -1.886\ngini = 0.204\nsamples = 1267\nvalue = [234, 1795]\nclass = Fraud", fillcolor="#53aae8"] ;
638 -> 640 ;
641 [label="V27 <= -0.288\ngini = 0.468\nsamples = 129\nvalue = [122, 73]\nclass = No Fraud", fillcolor="#f5ccaf"] ;
640 -> 641 ;
642 [label="V6 <= 0.54\ngini = 0.347\nsamples = 62\nvalue = [21, 73]\nclass = Fraud", fillcolor="#72b9ec"] ;
641 -> 642 ;
643 [label="gini = 0.0\nsamples = 47\nvalue = [0, 73]\nclass = Fraud", fillcolor="#399de5"] ;
642 -> 643 ;
644 [label="gini = 0.0\nsamples = 15\nvalue = [21, 0]\nclass = No Fraud", fillcolor="#e58139"] ;
642 -> 644 ;
645 [label="gini = 0.0\nsamples = 67\nvalue = [101, 0]\nclass = No Fraud", fillcolor="#e58139"] ;
641 -> 645 ;
646 [label="V25 <= 0.59\ngini = 0.115\nsamples = 1138\nvalue = [112, 1722]\nclass = Fraud", fillcolor="#46a3e7"] ;
640 -> 646 ;
647 [label="V18 <= 1.774\ngini = 0.104\nsamples = 1131\nvalue = [100, 1722]\nclass = Fraud", fillcolor="#44a3e7"] ;
646 -> 647 ;
648 [label="V23 <= -0.458\ngini = 0.094\nsamples = 1125\nvalue = [90, 1722]\nclass = Fraud", fillcolor="#43a2e6"] ;
647 -> 648 ;
649 [label="gini = 0.0\nsamples = 20\nvalue = [33, 0]\nclass = No Fraud", fillcolor="#e58139"] ;
648 -> 649 ;
650 [label="V24 <= -0.272\ngini = 0.062\nsamples = 1105\nvalue = [57, 1722]\nclass = Fraud", fillcolor="#40a0e6"] ;
648 -> 650 ;
651 [label="V20 <= -0.137\ngini = 0.142\nsamples = 10\nvalue = [12, 1]\nclass = No Fraud", fillcolor="#e78c49"] ;
650 -> 651 ;
652 [label="gini = 0.0\nsamples = 1\nvalue = [0, 1]\nclass = Fraud", fillcolor="#399de5"] ;
651 -> 652 ;
653 [label="gini = 0.0\nsamples = 9\nvalue = [12, 0]\nclass = No Fraud", fillcolor="#e58139"] ;
651 -> 653 ;
654 [label="V19 <= -0.703\ngini = 0.05\nsamples = 1095\nvalue = [45, 1721]\nclass = Fraud", fillcolor="#3ea0e6"] ;
650 -> 654 ;
655 [label="gini = 0.0\nsamples = 18\nvalue = [27, 0]\nclass = No Fraud", fillcolor="#e58139"] ;
654 -> 655 ;
656 [label="V10 <= 0.686\ngini = 0.02\nsamples = 1077\nvalue = [18, 1721]\nclass = Fraud", fillcolor="#3b9ee5"] ;
654 -> 656 ;
657 [label="V22 <= 0.351\ngini = 0.016\nsamples = 1075\nvalue = [14, 1721]\nclass = Fraud", fillcolor="#3b9ee5"] ;
656 -> 657 ;
658 [label="V23 <= -0.184\ngini = 0.011\nsamples = 1072\nvalue = [10, 1721]\nclass = Fraud", fillcolor="#3a9ee5"] ;
657 -> 658 ;
659 [label="V7 <= -0.834\ngini = 0.047\nsamples = 234\nvalue = [9, 361]\nclass = Fraud", fillcolor="#3e9fe6"] ;
658 -> 659 ;
660 [label="gini = 0.0\nsamples = 3\nvalue = [9, 0]\nclass = No Fraud", fillcolor="#e58139"] ;
659 -> 660 ;
661 [label="gini = 0.0\nsamples = 231\nvalue = [0, 361]\nclass = Fraud", fillcolor="#399de5"] ;
659 -> 661 ;
662 [label="V11 <= -1.032\ngini = 0.001\nsamples = 838\nvalue = [1, 1360]\nclass = Fraud", fillcolor="#399de5"] ;
658 -> 662 ;
663 [label="V7 <= -0.734\ngini = 0.013\nsamples = 84\nvalue = [1, 150]\nclass = Fraud", fillcolor="#3a9ee5"] ;
662 -> 663 ;
664 [label="gini = 0.0\nsamples = 83\nvalue = [0, 150]\nclass = Fraud", fillcolor="#399de5"] ;
663 -> 664 ;
665 [label="gini = 0.0\nsamples = 1\nvalue = [1, 0]\nclass = No Fraud", fillcolor="#e58139"] ;
663 -> 665 ;
666 [label="gini = 0.0\nsamples = 754\nvalue = [0, 1210]\nclass = Fraud", fillcolor="#399de5"] ;
662 -> 666 ;
667 [label="gini = 0.0\nsamples = 3\nvalue = [4, 0]\nclass = No Fraud", fillcolor="#e58139"] ;
657 -> 667 ;
668 [label="gini = 0.0\nsamples = 2\nvalue = [4, 0]\nclass = No Fraud", fillcolor="#e58139"] ;
656 -> 668 ;
669 [label="gini = 0.0\nsamples = 6\nvalue = [10, 0]\nclass = No Fraud", fillcolor="#e58139"] ;
647 -> 669 ;
670 [label="gini = 0.0\nsamples = 7\nvalue = [12, 0]\nclass = No Fraud", fillcolor="#e58139"] ;
646 -> 670 ;
671 [label="gini = 0.0\nsamples = 142\nvalue = [201, 0]\nclass = No Fraud", fillcolor="#e58139"] ;
635 -> 671 ;
672 [label="gini = 0.0\nsamples = 266\nvalue = [433, 0]\nclass = No Fraud", fillcolor="#e58139"] ;
630 -> 672 ;
673 [label="V10 <= -1.191\ngini = 0.047\nsamples = 697\nvalue = [1045, 26]\nclass = No Fraud", fillcolor="#e6843e"] ;
629 -> 673 ;
674 [label="V5 <= -0.465\ngini = 0.479\nsamples = 42\nvalue = [35, 23]\nclass = No Fraud", fillcolor="#f6d4bb"] ;
673 -> 674 ;
675 [label="gini = 0.0\nsamples = 16\nvalue = [21, 0]\nclass = No Fraud", fillcolor="#e58139"] ;
674 -> 675 ;
676 [label="V21 <= 0.422\ngini = 0.47\nsamples = 26\nvalue = [14, 23]\nclass = Fraud", fillcolor="#b2d9f5"] ;
674 -> 676 ;
677 [label="V28 <= 0.29\ngini = 0.142\nsamples = 10\nvalue = [12, 1]\nclass = No Fraud", fillcolor="#e78c49"] ;
676 -> 677 ;
678 [label="gini = 0.0\nsamples = 9\nvalue = [12, 0]\nclass = No Fraud", fillcolor="#e58139"] ;
677 -> 678 ;
679 [label="gini = 0.0\nsamples = 1\nvalue = [0, 1]\nclass = Fraud", fillcolor="#399de5"] ;
677 -> 679 ;
680 [label="V16 <= 0.766\ngini = 0.153\nsamples = 16\nvalue = [2, 22]\nclass = Fraud", fillcolor="#4ba6e7"] ;
676 -> 680 ;
681 [label="gini = 0.0\nsamples = 1\nvalue = [1, 0]\nclass = No Fraud", fillcolor="#e58139"] ;
680 -> 681 ;
682 [label="V12 <= 0.734\ngini = 0.083\nsamples = 15\nvalue = [1, 22]\nclass = Fraud", fillcolor="#42a1e6"] ;
680 -> 682 ;
683 [label="gini = 0.0\nsamples = 14\nvalue = [0, 22]\nclass = Fraud", fillcolor="#399de5"] ;
682 -> 683 ;
684 [label="gini = 0.0\nsamples = 1\nvalue = [1, 0]\nclass = No Fraud", fillcolor="#e58139"] ;
682 -> 684 ;
685 [label="V8 <= -2.971\ngini = 0.006\nsamples = 655\nvalue = [1010, 3]\nclass = No Fraud", fillcolor="#e5813a"] ;
673 -> 685 ;
686 [label="V24 <= 0.654\ngini = 0.5\nsamples = 4\nvalue = [3, 3]\nclass = No Fraud", fillcolor="#ffffff"] ;
685 -> 686 ;
687 [label="gini = 0.0\nsamples = 2\nvalue = [0, 3]\nclass = Fraud", fillcolor="#399de5"] ;
686 -> 687 ;
688 [label="gini = 0.0\nsamples = 2\nvalue = [3, 0]\nclass = No Fraud", fillcolor="#e58139"] ;
686 -> 688 ;
689 [label="gini = 0.0\nsamples = 651\nvalue = [1007, 0]\nclass = No Fraud", fillcolor="#e58139"] ;
685 -> 689 ;
690 [label="V5 <= 0.143\ngini = 0.164\nsamples = 134\nvalue = [19, 192]\nclass = Fraud", fillcolor="#4da7e8"] ;
502 -> 690 ;
691 [label="gini = 0.0\nsamples = 12\nvalue = [19, 0]\nclass = No Fraud", fillcolor="#e58139"] ;
690 -> 691 ;
692 [label="gini = 0.0\nsamples = 122\nvalue = [0, 192]\nclass = Fraud", fillcolor="#399de5"] ;
690 -> 692 ;
693 [label="gini = 0.0\nsamples = 14829\nvalue = [23576, 0]\nclass = No Fraud", fillcolor="#e58139"] ;
501 -> 693 ;
694 [label="V27 <= -0.137\ngini = 0.431\nsamples = 1288\nvalue = [649, 1416]\nclass = Fraud", fillcolor="#94caf1"] ;
500 -> 694 ;
695 [label="V24 <= 1.34\ngini = 0.261\nsamples = 1045\nvalue = [258, 1416]\nclass = Fraud", fillcolor="#5dafea"] ;
694 -> 695 ;
696 [label="V10 <= -0.786\ngini = 0.183\nsamples = 990\nvalue = [161, 1416]\nclass = Fraud", fillcolor="#50a8e8"] ;
695 -> 696 ;
697 [label="gini = 0.0\nsamples = 34\nvalue = [56, 0]\nclass = No Fraud", fillcolor="#e58139"] ;
696 -> 697 ;
698 [label="V23 <= 0.135\ngini = 0.129\nsamples = 956\nvalue = [105, 1416]\nclass = Fraud", fillcolor="#48a4e7"] ;
696 -> 698 ;
699 [label="gini = 0.0\nsamples = 26\nvalue = [42, 0]\nclass = No Fraud", fillcolor="#e58139"] ;
698 -> 699 ;
700 [label="Amount <= -0.816\ngini = 0.082\nsamples = 930\nvalue = [63, 1416]\nclass = Fraud", fillcolor="#42a1e6"] ;
698 -> 700 ;
701 [label="gini = 0.0\nsamples = 16\nvalue = [28, 0]\nclass = No Fraud", fillcolor="#e58139"] ;
700 -> 701 ;
702 [label="V17 <= 0.511\ngini = 0.047\nsamples = 914\nvalue = [35, 1416]\nclass = Fraud", fillcolor="#3e9fe6"] ;
700 -> 702 ;
703 [label="V3 <= 1.182\ngini = 0.025\nsamples = 906\nvalue = [18, 1416]\nclass = Fraud", fillcolor="#3c9ee5"] ;
702 -> 703 ;
704 [label="Time <= 0.838\ngini = 0.015\nsamples = 901\nvalue = [11, 1416]\nclass = Fraud", fillcolor="#3b9ee5"] ;
703 -> 704 ;
705 [label="V6 <= 0.723\ngini = 0.01\nsamples = 898\nvalue = [7, 1416]\nclass = Fraud", fillcolor="#3a9de5"] ;
704 -> 705 ;
706 [label="V25 <= 0.717\ngini = 0.007\nsamples = 897\nvalue = [5, 1416]\nclass = Fraud", fillcolor="#3a9de5"] ;
705 -> 706 ;
707 [label="V20 <= -0.522\ngini = 0.006\nsamples = 896\nvalue = [4, 1416]\nclass = Fraud", fillcolor="#3a9de5"] ;
706 -> 707 ;
708 [label="gini = 0.0\nsamples = 1\nvalue = [3, 0]\nclass = No Fraud", fillcolor="#e58139"] ;
707 -> 708 ;
709 [label="V5 <= -1.447\ngini = 0.001\nsamples = 895\nvalue = [1, 1416]\nclass = Fraud", fillcolor="#399de5"] ;
707 -> 709 ;
710 [label="gini = 0.0\nsamples = 1\nvalue = [1, 0]\nclass = No Fraud", fillcolor="#e58139"] ;
709 -> 710 ;
711 [label="gini = 0.0\nsamples = 894\nvalue = [0, 1416]\nclass = Fraud", fillcolor="#399de5"] ;
709 -> 711 ;
712 [label="gini = 0.0\nsamples = 1\nvalue = [1, 0]\nclass = No Fraud", fillcolor="#e58139"] ;
706 -> 712 ;
713 [label="gini = 0.0\nsamples = 1\nvalue = [2, 0]\nclass = No Fraud", fillcolor="#e58139"] ;
705 -> 713 ;
714 [label="gini = 0.0\nsamples = 3\nvalue = [4, 0]\nclass = No Fraud", fillcolor="#e58139"] ;
704 -> 714 ;
715 [label="gini = 0.0\nsamples = 5\nvalue = [7, 0]\nclass = No Fraud", fillcolor="#e58139"] ;
703 -> 715 ;
716 [label="gini = 0.0\nsamples = 8\nvalue = [17, 0]\nclass = No Fraud", fillcolor="#e58139"] ;
702 -> 716 ;
717 [label="gini = 0.0\nsamples = 55\nvalue = [97, 0]\nclass = No Fraud", fillcolor="#e58139"] ;
695 -> 717 ;
718 [label="gini = 0.0\nsamples = 243\nvalue = [391, 0]\nclass = No Fraud", fillcolor="#e58139"] ;
694 -> 718 ;
719 [label="V24 <= 0.337\ngini = 0.495\nsamples = 18184\nvalue = [15775, 12950]\nclass = No Fraud", fillcolor="#fae8dc"] ;
499 -> 719 ;
720 [label="V1 <= -0.243\ngini = 0.473\nsamples = 14630\nvalue = [14251, 8893]\nclass = No Fraud", fillcolor="#f5d0b5"] ;
719 -> 720 ;
721 [label="V19 <= 0.286\ngini = 0.465\nsamples = 5234\nvalue = [3053, 5262]\nclass = Fraud", fillcolor="#acd6f4"] ;
720 -> 721 ;
722 [label="V2 <= -0.846\ngini = 0.255\nsamples = 1172\nvalue = [1586, 280]\nclass = No Fraud", fillcolor="#ea975c"] ;
721 -> 722 ;
723 [label="V17 <= -0.838\ngini = 0.499\nsamples = 338\nvalue = [285, 261]\nclass = No Fraud", fillcolor="#fdf4ee"] ;
722 -> 723 ;
724 [label="V14 <= 0.009\ngini = 0.303\nsamples = 189\nvalue = [58, 254]\nclass = Fraud", fillcolor="#66b3eb"] ;
723 -> 724 ;
725 [label="V8 <= -0.593\ngini = 0.235\nsamples = 181\nvalue = [40, 254]\nclass = Fraud", fillcolor="#58ace9"] ;
724 -> 725 ;
726 [label="V13 <= -0.251\ngini = 0.031\nsamples = 158\nvalue = [4, 254]\nclass = Fraud", fillcolor="#3c9fe5"] ;
725 -> 726 ;
727 [label="V27 <= 0.371\ngini = 0.008\nsamples = 157\nvalue = [1, 254]\nclass = Fraud", fillcolor="#3a9de5"] ;
726 -> 727 ;
728 [label="gini = 0.0\nsamples = 156\nvalue = [0, 254]\nclass = Fraud", fillcolor="#399de5"] ;
727 -> 728 ;
729 [label="gini = 0.0\nsamples = 1\nvalue = [1, 0]\nclass = No Fraud", fillcolor="#e58139"] ;
727 -> 729 ;
730 [label="gini = 0.0\nsamples = 1\nvalue = [3, 0]\nclass = No Fraud", fillcolor="#e58139"] ;
726 -> 730 ;
731 [label="gini = 0.0\nsamples = 23\nvalue = [36, 0]\nclass = No Fraud", fillcolor="#e58139"] ;
725 -> 731 ;
732 [label="gini = 0.0\nsamples = 8\nvalue = [18, 0]\nclass = No Fraud", fillcolor="#e58139"] ;
724 -> 732 ;
733 [label="V6 <= 8.545\ngini = 0.058\nsamples = 149\nvalue = [227, 7]\nclass = No Fraud", fillcolor="#e6853f"] ;
723 -> 733 ;
734 [label="gini = 0.0\nsamples = 145\nvalue = [227, 0]\nclass = No Fraud", fillcolor="#e58139"] ;
733 -> 734 ;
735 [label="gini = 0.0\nsamples = 4\nvalue = [0, 7]\nclass = Fraud", fillcolor="#399de5"] ;
733 -> 735 ;
736 [label="V1 <= -0.243\ngini = 0.028\nsamples = 834\nvalue = [1301, 19]\nclass = No Fraud", fillcolor="#e5833c"] ;
722 -> 736 ;
737 [label="V4 <= 0.204\ngini = 0.025\nsamples = 832\nvalue = [1301, 17]\nclass = No Fraud", fillcolor="#e5833c"] ;
736 -> 737 ;
738 [label="V13 <= -2.679\ngini = 0.068\nsamples = 306\nvalue = [469, 17]\nclass = No Fraud", fillcolor="#e68640"] ;
737 -> 738 ;
739 [label="V10 <= 0.797\ngini = 0.5\nsamples = 7\nvalue = [6, 6]\nclass = No Fraud", fillcolor="#ffffff"] ;
738 -> 739 ;
740 [label="gini = 0.0\nsamples = 3\nvalue = [6, 0]\nclass = No Fraud", fillcolor="#e58139"] ;
739 -> 740 ;
741 [label="gini = 0.0\nsamples = 4\nvalue = [0, 6]\nclass = Fraud", fillcolor="#399de5"] ;
739 -> 741 ;
742 [label="V24 <= -0.247\ngini = 0.045\nsamples = 299\nvalue = [463, 11]\nclass = No Fraud", fillcolor="#e6843e"] ;
738 -> 742 ;
743 [label="V21 <= -0.182\ngini = 0.338\nsamples = 36\nvalue = [40, 11]\nclass = No Fraud", fillcolor="#eca46f"] ;
742 -> 743 ;
744 [label="V1 <= -0.263\ngini = 0.475\nsamples = 13\nvalue = [7, 11]\nclass = Fraud", fillcolor="#b7dbf6"] ;
743 -> 744 ;
745 [label="gini = 0.0\nsamples = 6\nvalue = [7, 0]\nclass = No Fraud", fillcolor="#e58139"] ;
744 -> 745 ;
746 [label="gini = 0.0\nsamples = 7\nvalue = [0, 11]\nclass = Fraud", fillcolor="#399de5"] ;
744 -> 746 ;
747 [label="gini = 0.0\nsamples = 23\nvalue = [33, 0]\nclass = No Fraud", fillcolor="#e58139"] ;
743 -> 747 ;
748 [label="gini = 0.0\nsamples = 263\nvalue = [423, 0]\nclass = No Fraud", fillcolor="#e58139"] ;
742 -> 748 ;
749 [label="gini = 0.0\nsamples = 526\nvalue = [832, 0]\nclass = No Fraud", fillcolor="#e58139"] ;
737 -> 749 ;
750 [label="gini = 0.0\nsamples = 2\nvalue = [0, 2]\nclass = Fraud", fillcolor="#399de5"] ;
736 -> 750 ;
751 [label="V9 <= -0.181\ngini = 0.351\nsamples = 4062\nvalue = [1467, 4982]\nclass = Fraud", fillcolor="#73baed"] ;
721 -> 751 ;
752 [label="V21 <= -0.186\ngini = 0.283\nsamples = 437\nvalue = [550, 113]\nclass = No Fraud", fillcolor="#ea9b62"] ;
751 -> 752 ;
753 [label="V14 <= -0.773\ngini = 0.471\nsamples = 120\nvalue = [116, 71]\nclass = No Fraud", fillcolor="#f5ceb2"] ;
752 -> 753 ;
754 [label="gini = 0.0\nsamples = 47\nvalue = [72, 0]\nclass = No Fraud", fillcolor="#e58139"] ;
753 -> 754 ;
755 [label="V2 <= 1.938\ngini = 0.472\nsamples = 73\nvalue = [44, 71]\nclass = Fraud", fillcolor="#b4daf5"] ;
753 -> 755 ;
756 [label="V4 <= -0.767\ngini = 0.2\nsamples = 52\nvalue = [9, 71]\nclass = Fraud", fillcolor="#52a9e8"] ;
755 -> 756 ;
757 [label="V25 <= 0.081\ngini = 0.027\nsamples = 47\nvalue = [1, 71]\nclass = Fraud", fillcolor="#3c9ee5"] ;
756 -> 757 ;
758 [label="gini = 0.0\nsamples = 46\nvalue = [0, 71]\nclass = Fraud", fillcolor="#399de5"] ;
757 -> 758 ;
759 [label="gini = 0.0\nsamples = 1\nvalue = [1, 0]\nclass = No Fraud", fillcolor="#e58139"] ;
757 -> 759 ;
760 [label="gini = 0.0\nsamples = 5\nvalue = [8, 0]\nclass = No Fraud", fillcolor="#e58139"] ;
756 -> 760 ;
761 [label="gini = 0.0\nsamples = 21\nvalue = [35, 0]\nclass = No Fraud", fillcolor="#e58139"] ;
755 -> 761 ;
762 [label="V25 <= -1.129\ngini = 0.161\nsamples = 317\nvalue = [434, 42]\nclass = No Fraud", fillcolor="#e88d4c"] ;
752 -> 762 ;
763 [label="V25 <= -1.217\ngini = 0.346\nsamples = 17\nvalue = [6, 21]\nclass = Fraud", fillcolor="#72b9ec"] ;
762 -> 763 ;
764 [label="gini = 0.0\nsamples = 5\nvalue = [6, 0]\nclass = No Fraud", fillcolor="#e58139"] ;
763 -> 764 ;
765 [label="gini = 0.0\nsamples = 12\nvalue = [0, 21]\nclass = Fraud", fillcolor="#399de5"] ;
763 -> 765 ;
766 [label="V24 <= -0.187\ngini = 0.089\nsamples = 300\nvalue = [428, 21]\nclass = No Fraud", fillcolor="#e68743"] ;
762 -> 766 ;
767 [label="V21 <= -0.082\ngini = 0.213\nsamples = 118\nvalue = [152, 21]\nclass = No Fraud", fillcolor="#e99254"] ;
766 -> 767 ;
768 [label="V9 <= -0.208\ngini = 0.5\nsamples = 22\nvalue = [17, 16]\nclass = No Fraud", fillcolor="#fdf8f3"] ;
767 -> 768 ;
769 [label="gini = 0.0\nsamples = 12\nvalue = [17, 0]\nclass = No Fraud", fillcolor="#e58139"] ;
768 -> 769 ;
770 [label="gini = 0.0\nsamples = 10\nvalue = [0, 16]\nclass = Fraud", fillcolor="#399de5"] ;
768 -> 770 ;
771 [label="V14 <= -0.83\ngini = 0.069\nsamples = 96\nvalue = [135, 5]\nclass = No Fraud", fillcolor="#e68640"] ;
767 -> 771 ;
772 [label="V18 <= 0.793\ngini = 0.311\nsamples = 18\nvalue = [21, 5]\nclass = No Fraud", fillcolor="#eb9f68"] ;
771 -> 772 ;
773 [label="V9 <= -0.378\ngini = 0.278\nsamples = 6\nvalue = [1, 5]\nclass = Fraud", fillcolor="#61b1ea"] ;
772 -> 773 ;
774 [label="gini = 0.0\nsamples = 1\nvalue = [1, 0]\nclass = No Fraud", fillcolor="#e58139"] ;
773 -> 774 ;
775 [label="gini = 0.0\nsamples = 5\nvalue = [0, 5]\nclass = Fraud", fillcolor="#399de5"] ;
773 -> 775 ;
776 [label="gini = 0.0\nsamples = 12\nvalue = [20, 0]\nclass = No Fraud", fillcolor="#e58139"] ;
772 -> 776 ;
777 [label="gini = 0.0\nsamples = 78\nvalue = [114, 0]\nclass = No Fraud", fillcolor="#e58139"] ;
771 -> 777 ;
778 [label="gini = 0.0\nsamples = 182\nvalue = [276, 0]\nclass = No Fraud", fillcolor="#e58139"] ;
766 -> 778 ;
779 [label="V26 <= 0.052\ngini = 0.267\nsamples = 3625\nvalue = [917, 4869]\nclass = Fraud", fillcolor="#5eafea"] ;
751 -> 779 ;
780 [label="V28 <= -0.016\ngini = 0.263\nsamples = 373\nvalue = [476, 88]\nclass = No Fraud", fillcolor="#ea985e"] ;
779 -> 780 ;
781 [label="V13 <= -0.295\ngini = 0.497\nsamples = 111\nvalue = [100, 86]\nclass = No Fraud", fillcolor="#fbede3"] ;
780 -> 781 ;
782 [label="gini = 0.0\nsamples = 45\nvalue = [75, 0]\nclass = No Fraud", fillcolor="#e58139"] ;
781 -> 782 ;
783 [label="V20 <= -0.328\ngini = 0.349\nsamples = 66\nvalue = [25, 86]\nclass = Fraud", fillcolor="#73b9ed"] ;
781 -> 783 ;
784 [label="V15 <= -0.466\ngini = 0.023\nsamples = 51\nvalue = [1, 86]\nclass = Fraud", fillcolor="#3b9ee5"] ;
783 -> 784 ;
785 [label="gini = 0.0\nsamples = 50\nvalue = [0, 86]\nclass = Fraud", fillcolor="#399de5"] ;
784 -> 785 ;
786 [label="gini = 0.0\nsamples = 1\nvalue = [1, 0]\nclass = No Fraud", fillcolor="#e58139"] ;
784 -> 786 ;
787 [label="gini = 0.0\nsamples = 15\nvalue = [24, 0]\nclass = No Fraud", fillcolor="#e58139"] ;
783 -> 787 ;
788 [label="V12 <= 3.345\ngini = 0.011\nsamples = 262\nvalue = [376, 2]\nclass = No Fraud", fillcolor="#e5823a"] ;
780 -> 788 ;
789 [label="gini = 0.0\nsamples = 256\nvalue = [369, 0]\nclass = No Fraud", fillcolor="#e58139"] ;
788 -> 789 ;
790 [label="V1 <= -0.265\ngini = 0.346\nsamples = 6\nvalue = [7, 2]\nclass = No Fraud", fillcolor="#eca572"] ;
788 -> 790 ;
791 [label="gini = 0.0\nsamples = 4\nvalue = [7, 0]\nclass = No Fraud", fillcolor="#e58139"] ;
790 -> 791 ;
792 [label="gini = 0.0\nsamples = 2\nvalue = [0, 2]\nclass = Fraud", fillcolor="#399de5"] ;
790 -> 792 ;
793 [label="V18 <= 0.675\ngini = 0.155\nsamples = 3252\nvalue = [441, 4781]\nclass = Fraud", fillcolor="#4ba6e7"] ;
779 -> 793 ;
794 [label="V4 <= -2.069\ngini = 0.481\nsamples = 283\nvalue = [272, 183]\nclass = No Fraud", fillcolor="#f6d6be"] ;
793 -> 794 ;
795 [label="Time <= 0.472\ngini = 0.134\nsamples = 106\nvalue = [12, 154]\nclass = Fraud", fillcolor="#48a5e7"] ;
794 -> 795 ;
796 [label="gini = 0.0\nsamples = 100\nvalue = [0, 154]\nclass = Fraud", fillcolor="#399de5"] ;
795 -> 796 ;
797 [label="gini = 0.0\nsamples = 6\nvalue = [12, 0]\nclass = No Fraud", fillcolor="#e58139"] ;
795 -> 797 ;
798 [label="V4 <= -0.296\ngini = 0.181\nsamples = 177\nvalue = [260, 29]\nclass = No Fraud", fillcolor="#e88f4f"] ;
794 -> 798 ;
799 [label="V1 <= -0.289\ngini = 0.429\nsamples = 57\nvalue = [64, 29]\nclass = No Fraud", fillcolor="#f1ba93"] ;
798 -> 799 ;
800 [label="gini = 0.0\nsamples = 36\nvalue = [59, 0]\nclass = No Fraud", fillcolor="#e58139"] ;
799 -> 800 ;
801 [label="V17 <= 0.7\ngini = 0.251\nsamples = 21\nvalue = [5, 29]\nclass = Fraud", fillcolor="#5baee9"] ;
799 -> 801 ;
802 [label="gini = 0.0\nsamples = 17\nvalue = [0, 29]\nclass = Fraud", fillcolor="#399de5"] ;
801 -> 802 ;
803 [label="gini = 0.0\nsamples = 4\nvalue = [5, 0]\nclass = No Fraud", fillcolor="#e58139"] ;
801 -> 803 ;
804 [label="gini = 0.0\nsamples = 120\nvalue = [196, 0]\nclass = No Fraud", fillcolor="#e58139"] ;
798 -> 804 ;
805 [label="V15 <= 0.18\ngini = 0.068\nsamples = 2969\nvalue = [169, 4598]\nclass = Fraud", fillcolor="#40a1e6"] ;
793 -> 805 ;
806 [label="V25 <= -1.163\ngini = 0.062\nsamples = 2958\nvalue = [152, 4598]\nclass = Fraud", fillcolor="#40a0e6"] ;
805 -> 806 ;
807 [label="gini = 0.0\nsamples = 17\nvalue = [26, 0]\nclass = No Fraud", fillcolor="#e58139"] ;
806 -> 807 ;
808 [label="V9 <= -0.135\ngini = 0.052\nsamples = 2941\nvalue = [126, 4598]\nclass = Fraud", fillcolor="#3ea0e6"] ;
806 -> 808 ;
809 [label="V6 <= 0.857\ngini = 0.396\nsamples = 121\nvalue = [53, 142]\nclass = Fraud", fillcolor="#83c2ef"] ;
808 -> 809 ;
810 [label="V14 <= -1.185\ngini = 0.137\nsamples = 92\nvalue = [11, 138]\nclass = Fraud", fillcolor="#49a5e7"] ;
809 -> 810 ;
811 [label="gini = 0.0\nsamples = 7\nvalue = [10, 0]\nclass = No Fraud", fillcolor="#e58139"] ;
810 -> 811 ;
812 [label="V9 <= -0.136\ngini = 0.014\nsamples = 85\nvalue = [1, 138]\nclass = Fraud", fillcolor="#3a9ee5"] ;
810 -> 812 ;
813 [label="gini = 0.0\nsamples = 83\nvalue = [0, 137]\nclass = Fraud", fillcolor="#399de5"] ;
812 -> 813 ;
814 [label="V26 <= 0.25\ngini = 0.5\nsamples = 2\nvalue = [1, 1]\nclass = No Fraud", fillcolor="#ffffff"] ;
812 -> 814 ;
815 [label="gini = 0.0\nsamples = 1\nvalue = [1, 0]\nclass = No Fraud", fillcolor="#e58139"] ;
814 -> 815 ;
816 [label="gini = 0.0\nsamples = 1\nvalue = [0, 1]\nclass = Fraud", fillcolor="#399de5"] ;
814 -> 816 ;
817 [label="V26 <= 0.323\ngini = 0.159\nsamples = 29\nvalue = [42, 4]\nclass = No Fraud", fillcolor="#e78d4c"] ;
809 -> 817 ;
818 [label="V2 <= -0.456\ngini = 0.32\nsamples = 3\nvalue = [1, 4]\nclass = Fraud", fillcolor="#6ab6ec"] ;
817 -> 818 ;
819 [label="gini = 0.0\nsamples = 1\nvalue = [1, 0]\nclass = No Fraud", fillcolor="#e58139"] ;
818 -> 819 ;
820 [label="gini = 0.0\nsamples = 2\nvalue = [0, 4]\nclass = Fraud", fillcolor="#399de5"] ;
818 -> 820 ;
821 [label="gini = 0.0\nsamples = 26\nvalue = [41, 0]\nclass = No Fraud", fillcolor="#e58139"] ;
817 -> 821 ;
822 [label="V21 <= -0.244\ngini = 0.032\nsamples = 2820\nvalue = [73, 4456]\nclass = Fraud", fillcolor="#3c9fe5"] ;
808 -> 822 ;
823 [label="V13 <= -0.179\ngini = 0.5\nsamples = 25\nvalue = [18, 19]\nclass = Fraud", fillcolor="#f5fafe"] ;
822 -> 823 ;
824 [label="V14 <= -1.377\ngini = 0.255\nsamples = 13\nvalue = [17, 3]\nclass = No Fraud", fillcolor="#ea975c"] ;
823 -> 824 ;
825 [label="gini = 0.0\nsamples = 8\nvalue = [14, 0]\nclass = No Fraud", fillcolor="#e58139"] ;
824 -> 825 ;
826 [label="Time <= -0.576\ngini = 0.5\nsamples = 5\nvalue = [3, 3]\nclass = No Fraud", fillcolor="#ffffff"] ;
824 -> 826 ;
827 [label="gini = 0.0\nsamples = 2\nvalue = [3, 0]\nclass = No Fraud", fillcolor="#e58139"] ;
826 -> 827 ;
828 [label="gini = 0.0\nsamples = 3\nvalue = [0, 3]\nclass = Fraud", fillcolor="#399de5"] ;
826 -> 828 ;
829 [label="V27 <= -0.321\ngini = 0.111\nsamples = 12\nvalue = [1, 16]\nclass = Fraud", fillcolor="#45a3e7"] ;
823 -> 829 ;
830 [label="gini = 0.0\nsamples = 1\nvalue = [1, 0]\nclass = No Fraud", fillcolor="#e58139"] ;
829 -> 830 ;
831 [label="gini = 0.0\nsamples = 11\nvalue = [0, 16]\nclass = Fraud", fillcolor="#399de5"] ;
829 -> 831 ;
832 [label="V16 <= 1.521\ngini = 0.024\nsamples = 2795\nvalue = [55, 4437]\nclass = Fraud", fillcolor="#3b9ee5"] ;
822 -> 832 ;
833 [label="V17 <= 0.07\ngini = 0.019\nsamples = 2787\nvalue = [44, 4437]\nclass = Fraud", fillcolor="#3b9ee5"] ;
832 -> 833 ;
834 [label="gini = 0.0\nsamples = 8\nvalue = [11, 0]\nclass = No Fraud", fillcolor="#e58139"] ;
833 -> 834 ;
835 [label="V16 <= 0.665\ngini = 0.015\nsamples = 2779\nvalue = [33, 4437]\nclass = Fraud", fillcolor="#3a9ee5"] ;
833 -> 835 ;
836 [label="V24 <= -0.321\ngini = 0.002\nsamples = 1811\nvalue = [3, 2903]\nclass = Fraud", fillcolor="#399de5"] ;
835 -> 836 ;
837 [label="V12 <= 1.572\ngini = 0.048\nsamples = 27\nvalue = [1, 40]\nclass = Fraud", fillcolor="#3e9fe6"] ;
836 -> 837 ;
838 [label="gini = 0.0\nsamples = 26\nvalue = [0, 40]\nclass = Fraud", fillcolor="#399de5"] ;
837 -> 838 ;
839 [label="gini = 0.0\nsamples = 1\nvalue = [1, 0]\nclass = No Fraud", fillcolor="#e58139"] ;
837 -> 839 ;
840 [label="V7 <= -1.298\ngini = 0.001\nsamples = 1784\nvalue = [2, 2863]\nclass = Fraud", fillcolor="#399de5"] ;
836 -> 840 ;
841 [label="V1 <= -0.294\ngini = 0.009\nsamples = 256\nvalue = [2, 425]\nclass = Fraud", fillcolor="#3a9de5"] ;
840 -> 841 ;
842 [label="gini = 0.0\nsamples = 1\nvalue = [2, 0]\nclass = No Fraud", fillcolor="#e58139"] ;
841 -> 842 ;
843 [label="gini = 0.0\nsamples = 255\nvalue = [0, 425]\nclass = Fraud", fillcolor="#399de5"] ;
841 -> 843 ;
844 [label="gini = 0.0\nsamples = 1528\nvalue = [0, 2438]\nclass = Fraud", fillcolor="#399de5"] ;
840 -> 844 ;
845 [label="V14 <= -1.72\ngini = 0.038\nsamples = 968\nvalue = [30, 1534]\nclass = Fraud", fillcolor="#3d9fe6"] ;
835 -> 845 ;
846 [label="V22 <= 0.0\ngini = 0.26\nsamples = 13\nvalue = [11, 2]\nclass = No Fraud", fillcolor="#ea985d"] ;
845 -> 846 ;
